{"learner":{"attributes":{"best_iteration":"99","best_ntree_limit":"100","best_score":"0.978404","scikit_learn":"{\"n_estimators\": 100, \"objective\": \"reg:squarederror\", \"max_depth\": 4, \"learning_rate\": 0.01, \"verbosity\": null, \"booster\": null, \"tree_method\": null, \"gamma\": null, \"min_child_weight\": null, \"max_delta_step\": null, \"subsample\": 0.8, \"colsample_bytree\": 0.9, \"colsample_bylevel\": 0.8, \"colsample_bynode\": null, \"reg_alpha\": null, \"reg_lambda\": 0.1, \"scale_pos_weight\": null, \"base_score\": null, \"missing\": NaN, \"num_parallel_tree\": null, \"random_state\": 42, \"n_jobs\": null, \"monotone_constraints\": null, \"interaction_constraints\": null, \"importance_type\": null, \"gpu_id\": null, \"validate_parameters\": null, \"predictor\": null, \"enable_categorical\": false, \"kwargs\": {\"eval_metric\": \"rmse\"}, \"evals_result_\": {\"validation_0\": {\"rmse\": [1.930341, 1.913986, 1.898024, 1.883221, 1.867339, 1.851692, 1.836276, 1.821045, 1.805846, 1.791051, 1.776392, 1.761694, 1.747546, 1.733195, 1.719265, 1.706246, 1.693405, 1.679657, 1.666264, 1.653011, 1.639657, 1.626463, 1.614482, 1.601519, 1.588732, 1.576492, 1.564136, 1.55178, 1.53958, 1.527382, 1.515473, 1.503695, 1.49221, 1.480811, 1.469366, 1.458066, 1.447034, 1.436178, 1.425328, 1.414958, 1.4045, 1.394071, 1.383858, 1.373584, 1.363471, 1.353531, 1.344349, 1.334513, 1.324854, 1.315498, 1.306036, 1.296632, 1.287353, 1.27857, 1.26969, 1.260816, 1.252141, 1.243623, 1.235007, 1.226701, 1.218406, 1.210272, 1.202317, 1.194234, 1.186229, 1.178434, 1.170694, 1.163019, 1.15543, 1.147975, 1.140503, 1.133158, 1.125739, 1.118708, 1.111465, 1.10452, 1.097723, 1.091058, 1.084323, 1.078224, 1.071734, 1.065061, 1.058717, 1.052384, 1.046192, 1.040021, 1.033923, 1.027665, 1.021711, 1.015856, 1.010075, 1.0048, 0.999497, 0.993987, 0.988368, 0.982929, 0.977536, 0.972265, 0.967077, 0.961863]}, \"validation_1\": {\"rmse\": [1.933601, 1.91741, 1.901564, 1.887028, 1.871301, 1.855922, 1.840674, 1.8256, 1.810519, 1.795905, 1.781376, 1.766824, 1.75281, 1.738579, 1.724804, 1.711791, 1.699104, 1.685507, 1.672294, 1.659164, 1.645897, 1.632778, 1.620954, 1.608091, 1.595453, 1.583357, 1.571202, 1.559044, 1.546922, 1.534822, 1.523039, 1.51139, 1.50009, 1.488853, 1.477507, 1.466226, 1.455291, 1.44461, 1.43388, 1.42369, 1.413375, 1.40312, 1.393045, 1.382933, 1.37285, 1.363043, 1.353989, 1.344293, 1.334724, 1.325537, 1.316131, 1.306913, 1.297769, 1.289096, 1.280354, 1.271466, 1.262886, 1.254494, 1.246009, 1.237843, 1.22963, 1.221598, 1.21381, 1.205836, 1.198003, 1.190334, 1.182755, 1.175218, 1.167725, 1.160375, 1.153024, 1.145885, 1.138644, 1.13174, 1.124636, 1.117868, 1.111216, 1.104652, 1.09808, 1.092115, 1.085746, 1.079269, 1.073049, 1.066865, 1.060819, 1.054776, 1.048768, 1.042648, 1.036874, 1.03116, 1.025473, 1.020335, 1.01518, 1.009781, 1.004281, 0.99903, 0.993743, 0.988594, 0.983535, 0.978404]}}, \"_estimator_type\": \"regressor\"}"},"feature_names":["MedInc","HouseAge","AveRooms","AveBedrms","Population","AveOccup","Latitude","Longitude"],"feature_types":["float","float","float","float","float","float","float","float"],"gradient_booster":{"model":{"gbtree_model_param":{"num_trees":"100","size_leaf_vector":"0"},"tree_info":[0,0,0,0,0,0,0,0,0,0,0,0,0,0,0,0,0,0,0,0,0,0,0,0,0,0,0,0,0,0,0,0,0,0,0,0,0,0,0,0,0,0,0,0,0,0,0,0,0,0,0,0,0,0,0,0,0,0,0,0,0,0,0,0,0,0,0,0,0,0,0,0,0,0,0,0,0,0,0,0,0,0,0,0,0,0,0,0,0,0,0,0,0,0,0,0,0,0,0,0],"trees":[{"base_weights":[1.5714377E0,1.2459034E0,2.832135E0,8.551837E-1,1.6017606E0,2.4324925E0,3.6995516E0,1.1480495E0,6.82377E-1,1.7031659E0,1.0906605E0,2.1813693E0,2.696943E0,3.2204092E0,4.0466766E0,1.5794924E0,9.611924E-1,4.678978E-1,8.934576E-1,2.4166634E0,1.4421974E0,1.5104063E0,9.5436376E-1,2.9067338E0,1.8672473E0,3.281127E0,2.3996491E0,3.4240584E0,2.7722821E0,3.7890947E0,4.297346E0],"categories":[],"categories_nodes":[],"categories_segments":[],"categories_sizes":[],"default_left":[true,true,true,true,true,true,true,true,true,true,true,true,true,true,true,false,false,false,false,false,false,false,false,false,false,false,false,false,false,false,false],"id":0,"left_children":[1,3,5,7,9,11,13,15,17,19,21,23,25,27,29,-1,-1,-1,-1,-1,-1,-1,-1,-1,-1,-1,-1,-1,-1,-1,-1],"loss_changes":[6.1072656E3,1.6444473E3,1.0578223E3,2.8526123E2,3.2063574E2,1.3828125E2,1.5888281E2,1.6850952E2,1.6049854E2,9.613955E2,5.850183E1,2.4396631E2,1.7603027E2,3.6020508E1,3.4407227E1,0E0,0E0,0E0,0E0,0E0,0E0,0E0,0E0,0E0,0E0,0E0,0E0,0E0,0E0,0E0,0E0],"parents":[2147483647,0,0,1,1,2,2,3,3,4,4,5,5,6,6,7,7,8,8,9,9,10,10,11,11,12,12,13,13,14,14],"right_children":[2,4,6,8,10,12,14,16,18,20,22,24,26,28,30,-1,-1,-1,-1,-1,-1,-1,-1,-1,-1,-1,-1,-1,-1,-1,-1],"split_conditions":[5.07545E0,3.0742998E0,6.8196E0,4.2055435E0,3.7945E1,5.71245E0,7.8151503E0,2.507185E0,2.3972E0,2.4178867E0,-1.22415E2,2.5755472E0,2.6727428E0,3.0574415E0,9.0398E0,1.5794924E-2,9.611924E-3,4.678978E-3,8.934576E-3,2.4166634E-2,1.4421974E-2,1.5104062E-2,9.543638E-3,2.9067338E-2,1.8672474E-2,3.281127E-2,2.3996491E-2,3.4240585E-2,2.772282E-2,3.7890945E-2,4.297346E-2],"split_indices":[0,0,0,2,6,0,0,5,0,5,7,5,5,5,0,0,0,0,0,0,0,0,0,0,0,0,0,0,0,0,0],"split_type":[0,0,0,0,0,0,0,0,0,0,0,0,0,0,0,0,0,0,0,0,0,0,0,0,0,0,0,0,0,0,0],"sum_hessian":[1.4882E4,1.1828E4,3.054E3,5.638E3,6.19E3,2.091E3,9.63E2,2.092E3,3.546E3,5.165E3,1.025E3,1.073E3,1.018E3,4.05E2,5.58E2,6.32E2,1.46E3,1.759E3,1.787E3,1.383E3,3.782E3,2.51E2,7.74E2,3.24E2,7.49E2,3.43E2,6.75E2,2.78E2,1.27E2,2.76E2,2.82E2],"tree_param":{"num_deleted":"0","num_feature":"8","num_nodes":"31","size_leaf_vector":"0"}},{"base_weights":[1.5565104E0,1.2289256E0,2.774587E0,8.485917E-1,1.5771052E0,2.3942947E0,3.695434E0,1.0916351E0,6.641249E-1,1.4546452E0,2.051094E0,2.155538E0,2.7431936E0,3.1813955E0,4.0431013E0,8.420811E-1,1.3762345E0,4.5339224E-1,8.479365E-1,2.0671005E0,1.2873726E0,2.7069957E0,1.7212899E0,2.6992629E0,2.0263474E0,3.2387445E0,2.3764482E0,3.4088287E0,2.8814E0,1.8946507E0,4.0785513E0],"categories":[],"categories_nodes":[],"categories_segments":[],"categories_sizes":[],"default_left":[true,true,true,true,true,true,true,true,true,true,true,true,true,true,true,false,false,false,false,false,false,false,false,false,false,false,false,false,false,false,false],"id":1,"left_children":[1,3,5,7,9,11,13,15,17,19,21,23,25,27,29,-1,-1,-1,-1,-1,-1,-1,-1,-1,-1,-1,-1,-1,-1,-1,-1],"loss_changes":[5.934371E3,1.5520273E3,1.1029531E3,2.5108911E2,3.548828E2,1.852627E2,1.6332812E2,1.7155347E2,1.2333667E2,4.9794336E2,2.7125244E2,9.253369E1,1.6390625E2,2.4405762E1,4.104785E1,0E0,0E0,0E0,0E0,0E0,0E0,0E0,0E0,0E0,0E0,0E0,0E0,0E0,0E0,0E0,0E0],"parents":[2147483647,0,0,1,1,2,2,3,3,4,4,5,5,6,6,7,7,8,8,9,9,10,10,11,11,12,12,13,13,14,14],"right_children":[2,4,6,8,10,12,14,16,18,20,22,24,26,28,30,-1,-1,-1,-1,-1,-1,-1,-1,-1,-1,-1,-1,-1,-1,-1,-1],"split_conditions":[5.0286503E0,3.07055E0,6.88755E0,4.3354096E0,3.85E1,2.75E1,7.8151503E0,2.2147E0,2.36705E0,2.3989825E0,2.3416255E0,2.5743036E0,2.5897036E0,2.913106E0,5.7E1,8.420811E-3,1.3762345E-2,4.5339223E-3,8.479365E-3,2.0671004E-2,1.2873726E-2,2.7069956E-2,1.7212898E-2,2.6992628E-2,2.0263474E-2,3.2387443E-2,2.3764482E-2,3.4088288E-2,2.8814001E-2,1.8946506E-2,4.0785514E-2],"split_indices":[0,0,0,2,1,1,0,0,0,5,5,5,5,5,4,0,0,0,0,0,0,0,0,0,0,0,0,0,0,0,0],"split_type":[0,0,0,0,0,0,0,0,0,0,0,0,0,0,0,0,0,0,0,0,0,0,0,0,0,0,0,0,0,0,0],"sum_hessian":[1.4873E4,1.1721E4,3.152E3,5.602E3,6.119E3,2.231E3,9.21E2,2.417E3,3.185E3,4.863E3,1.256E3,1.325E3,9.06E2,3.72E2,5.49E2,1.288E3,1.129E3,1.484E3,1.701E3,1.043E3,3.82E3,4.2E2,8.36E2,2.54E2,1.071E3,3.85E2,5.21E2,2.11E2,1.61E2,9E0,5.4E2],"tree_param":{"num_deleted":"0","num_feature":"8","num_nodes":"31","size_leaf_vector":"0"}},{"base_weights":[1.5350745E0,1.2116355E0,2.7798338E0,8.3450794E-1,1.5557591E0,2.4546738E0,3.843586E0,6.694828E-1,1.053007E0,1.4307469E0,2.0307736E0,2.3165357E0,3.1611245E0,3.5498996E0,4.213858E0,1.0990108E0,5.159751E-1,1.3482745E0,7.7560616E-1,1.2845469E0,1.6658028E0,2.7673202E0,1.8536674E0,2.1395752E0,2.822561E0,2.7614088E0,3.5122888E0,3.7414498E0,3.0877244E0,1.3386476E0,4.231683E0],"categories":[],"categories_nodes":[],"categories_segments":[],"categories_sizes":[],"default_left":[true,true,true,true,true,true,true,true,true,true,true,true,true,true,true,false,false,false,false,false,false,false,false,false,false,false,false,false,false,false,false],"id":2,"left_children":[1,3,5,7,9,11,13,15,17,19,21,23,25,27,29,-1,-1,-1,-1,-1,-1,-1,-1,-1,-1,-1,-1,-1,-1,-1,-1],"loss_changes":[5.988832E3,1.5323066E3,1.0602812E3,2.0308301E2,3.6634375E2,2.2860938E2,7.659277E1,2.11604E2,1.9844751E2,1.677666E2,1.6725488E2,1.7545312E2,5.294458E1,3.4354004E1,1.5685059E1,0E0,0E0,0E0,0E0,0E0,0E0,0E0,0E0,0E0,0E0,0E0,0E0,0E0,0E0,0E0,0E0],"parents":[2147483647,0,0,1,1,2,2,3,3,4,4,5,5,6,6,7,7,8,8,9,9,10,10,11,11,12,12,13,13,14,14],"right_children":[2,4,6,8,10,12,14,16,18,20,22,24,26,28,30,-1,-1,-1,-1,-1,-1,-1,-1,-1,-1,-1,-1,-1,-1,-1,-1],"split_conditions":[5.07535E0,3.0742998E0,7.39915E0,2.4187E0,3.85E1,3.65E1,8.7801E0,3.765989E0,4.640074E0,4.13625E0,-1.22415E2,6.32265E0,5.7110004E0,-1.18045E2,4.887805E0,1.0990108E-2,5.159751E-3,1.3482745E-2,7.7560614E-3,1.2845468E-2,1.6658029E-2,2.7673202E-2,1.8536674E-2,2.1395752E-2,2.822561E-2,2.7614087E-2,3.5122886E-2,3.74145E-2,3.0877244E-2,1.3386476E-2,4.2316828E-2],"split_indices":[0,0,0,0,1,1,0,2,2,0,7,0,0,7,2,0,0,0,0,0,0,0,0,0,0,0,0,0,0,0,0],"split_type":[0,0,0,0,0,0,0,0,0,0,0,0,0,0,0,0,0,0,0,0,0,0,0,0,0,0,0,0,0,0,0],"sum_hessian":[1.4876E4,1.1808E4,3.068E3,5.634E3,6.174E3,2.35E3,7.18E2,3.21E3,2.424E3,4.888E3,1.286E3,1.966E3,3.84E2,4.01E2,3.17E2,8.45E2,2.365E3,1.174E3,1.25E3,3.014E3,1.874E3,2.49E2,1.037E3,1.457E3,5.09E2,1.8E2,2.04E2,2.83E2,1.18E2,2E0,3.15E2],"tree_param":{"num_deleted":"0","num_feature":"8","num_nodes":"31","size_leaf_vector":"0"}},{"base_weights":[1.518914E0,1.6506245E0,8.587078E-1,1.4542168E0,2.6026986E0,6.889106E-1,1.1803199E0,1.8944205E0,1.0747199E0,2.297373E0,3.1492267E0,8.320338E-1,3.72158E-1,1.4448181E0,6.986121E-1,3.052093E0,1.7991431E0,1.5759941E0,9.896045E-1,2.5126662E0,1.3136868E0,3.3056695E0,1.8685031E0,1.4737267E0,6.925113E-1,3.3092654E-1,6.3262284E-1,1.9851408E0,1.1582892E0,6.753973E-1,3.960751E0],"categories":[],"categories_nodes":[],"categories_segments":[],"categories_sizes":[],"default_left":[true,true,true,true,true,true,true,true,true,true,true,true,true,true,true,false,false,false,false,false,false,false,false,false,false,false,false,false,false,false,false],"id":3,"left_children":[1,3,5,7,9,11,13,15,17,19,21,23,25,27,29,-1,-1,-1,-1,-1,-1,-1,-1,-1,-1,-1,-1,-1,-1,-1,-1],"loss_changes":[1.280207E3,2.294996E3,1.3366113E2,1.6997754E3,3.4955078E2,7.264502E1,1.07701416E2,5.19084E2,2.3301904E2,2.8495996E2,1.5007373E2,9.874866E1,5.339073E0,8.4316284E1,2.2459091E1,0E0,0E0,0E0,0E0,0E0,0E0,0E0,0E0,0E0,0E0,0E0,0E0,0E0,0E0,0E0,0E0],"parents":[2147483647,0,0,1,1,2,2,3,3,4,4,5,5,6,6,7,7,8,8,9,9,10,10,11,11,12,12,13,13,14,14],"right_children":[2,4,6,8,10,12,14,16,18,20,22,24,26,28,30,-1,-1,-1,-1,-1,-1,-1,-1,-1,-1,-1,-1,-1,-1,-1,-1],"split_conditions":[3.7945E1,6.3743052E0,5.918792E0,2.7910638E0,2.65E1,3.8925E1,3.8805E1,-1.22354996E2,-1.2146E2,-1.17175E2,-1.17735E2,-1.22380005E2,-1.21215E2,-1.22075E2,6.084375E1,3.0520929E-2,1.7991431E-2,1.5759941E-2,9.896045E-3,2.5126662E-2,1.3136868E-2,3.3056695E-2,1.868503E-2,1.4737267E-2,6.925113E-3,3.3092652E-3,6.3262284E-3,1.9851407E-2,1.1582891E-2,6.7539727E-3,3.960751E-2],"split_indices":[6,2,2,5,1,6,6,7,7,7,7,7,7,7,2,0,0,0,0,0,0,0,0,0,0,0,0,0,0,0,0],"split_type":[0,0,0,0,0,0,0,0,0,0,0,0,0,0,0,0,0,0,0,0,0,0,0,0,0,0,0,0,0,0,0],"sum_hessian":[1.4724E4,1.2275E4,2.449E3,1.0176E4,2.099E3,1.603E3,8.46E2,4.711E3,5.465E3,1.347E3,7.52E2,1.104E3,4.99E2,5.46E2,3E2,3.58E2,4.353E3,7.93E2,4.672E3,1.105E3,2.42E2,6.7E2,8.2E1,1.97E2,9.07E2,4.31E2,6.8E1,1.89E2,3.57E2,2.98E2,2E0],"tree_param":{"num_deleted":"0","num_feature":"8","num_nodes":"31","size_leaf_vector":"0"}},{"base_weights":[1.5131419E0,1.1964974E0,2.7275379E0,8.2432556E-1,1.5379138E0,2.3449469E0,3.5937243E0,1.0857795E0,6.32114E-1,2.2449815E0,1.3377937E0,2.992112E0,2.0884478E0,3.0894067E0,3.9429464E0,1.4964418E0,8.9226776E-1,4.3551403E-1,8.088916E-1,2.5822964E0,1.9849677E0,1.1771212E0,1.5731424E0,2.6748674E0,3.2262359E0,1.8121307E0,2.3744454E0,3.279639E0,2.696083E0,3.6761472E0,4.190716E0],"categories":[],"categories_nodes":[],"categories_segments":[],"categories_sizes":[],"default_left":[true,true,true,true,true,true,true,true,true,true,true,true,true,true,true,false,false,false,false,false,false,false,false,false,false,false,false,false,false,false,false],"id":4,"left_children":[1,3,5,7,9,11,13,15,17,19,21,23,25,27,29,-1,-1,-1,-1,-1,-1,-1,-1,-1,-1,-1,-1,-1,-1,-1,-1],"loss_changes":[5.706164E3,1.4955742E3,1.01624414E3,2.8296973E2,8.683721E2,3.527998E2,1.6435156E2,1.894851E2,1.1278113E2,1.1825098E2,1.8075977E2,4.4006348E1,1.20092285E2,2.7930176E1,3.515332E1,0E0,0E0,0E0,0E0,0E0,0E0,0E0,0E0,0E0,0E0,0E0,0E0,0E0,0E0,0E0,0E0],"parents":[2147483647,0,0,1,1,2,2,3,3,4,4,5,5,6,6,7,7,8,8,9,9,10,10,11,11,12,12,13,13,14,14],"right_children":[2,4,6,8,10,12,14,16,18,20,22,24,26,28,30,-1,-1,-1,-1,-1,-1,-1,-1,-1,-1,-1,-1,-1,-1,-1,-1],"split_conditions":[5.07535E0,3.07055E0,6.8683E0,4.3112516E0,2.35006E0,2.5743036E0,7.8151503E0,2.509025E0,2.3691502E0,2.0480723E0,4.0969E0,5.54665E0,5.7390003E0,3.0598996E0,9.06935E0,1.49644185E-2,8.9226775E-3,4.35514E-3,8.088916E-3,2.5822964E-2,1.9849677E-2,1.1771211E-2,1.5731424E-2,2.6748674E-2,3.226236E-2,1.8121306E-2,2.3744455E-2,3.279639E-2,2.696083E-2,3.676147E-2,4.1907158E-2],"split_indices":[0,0,0,2,5,5,0,5,0,5,0,0,0,5,0,0,0,0,0,0,0,0,0,0,0,0,0,0,0,0,0],"split_type":[0,0,0,0,0,0,0,0,0,0,0,0,0,0,0,0,0,0,0,0,0,0,0,0,0,0,0,0,0,0,0],"sum_hessian":[1.484E4,1.1771E4,3.069E3,5.632E3,6.139E3,2.129E3,9.4E2,2.386E3,3.246E3,1.354E3,4.785E3,6.04E2,1.525E3,3.85E2,5.55E2,7.64E2,1.622E3,1.537E3,1.709E3,5.89E2,7.65E2,2.844E3,1.941E3,2.57E2,3.47E2,7.76E2,7.49E2,2.59E2,1.26E2,2.68E2,2.87E2],"tree_param":{"num_deleted":"0","num_feature":"8","num_nodes":"31","size_leaf_vector":"0"}},{"base_weights":[1.4953946E0,1.1714084E0,2.6887443E0,7.9750204E-1,1.4968175E0,2.3767557E0,3.7505863E0,1.100254E0,6.4009875E-1,1.4214753E0,2.311913E0,2.135786E0,2.7355132E0,3.4397774E0,4.0681973E0,1.4213547E0,8.712088E-1,4.5129722E-1,8.521394E-1,2.133398E0,1.2724333E0,3.0277631E0,2.003556E0,1.8182985E0,2.3772714E0,3.2287488E0,2.3456016E0,3.7205744E0,3.122718E0,4.526276E-1,4.078252E0],"categories":[],"categories_nodes":[],"categories_segments":[],"categories_sizes":[],"default_left":[true,true,true,true,true,true,true,true,true,true,true,true,true,true,true,false,false,false,false,false,false,false,false,false,false,false,false,false,false,false,false],"id":5,"left_children":[1,3,5,7,9,11,13,15,17,19,21,23,25,27,29,-1,-1,-1,-1,-1,-1,-1,-1,-1,-1,-1,-1,-1,-1,-1,-1],"loss_changes":[5.750828E3,1.4233398E3,1.0512949E3,2.5936353E2,3.838037E2,2.1165918E2,6.978516E1,1.3682715E2,1.4336597E2,6.073047E2,1.161853E2,1.1220117E2,1.888877E2,3.1342773E1,1.2760742E1,0E0,0E0,0E0,0E0,0E0,0E0,0E0,0E0,0E0,0E0,0E0,0E0,0E0,0E0,0E0,0E0],"parents":[2147483647,0,0,1,1,2,2,3,3,4,4,5,5,6,6,7,7,8,8,9,9,10,10,11,11,12,12,13,13,14,14],"right_children":[2,4,6,8,10,12,14,16,18,20,22,24,26,28,30,-1,-1,-1,-1,-1,-1,-1,-1,-1,-1,-1,-1,-1,-1,-1,-1],"split_conditions":[5.04525E0,3.0264E0,7.3842E0,4.095599E0,4.75E1,2.75E1,8.56355E0,2.8721995E0,2.3955002E0,2.2989097E0,2.2077127E0,5.71585E0,2.5897036E0,2.8520322E0,7.0000005E-1,1.4213546E-2,8.712088E-3,4.512972E-3,8.521394E-3,2.133398E-2,1.27243325E-2,3.027763E-2,2.003556E-2,1.8182984E-2,2.3772713E-2,3.2287486E-2,2.3456015E-2,3.7205745E-2,3.122718E-2,4.5262757E-3,4.078252E-2],"split_indices":[0,0,0,2,1,1,0,5,0,5,5,0,5,5,3,0,0,0,0,0,0,0,0,0,0,0,0,0,0,0,0],"split_type":[0,0,0,0,0,0,0,0,0,0,0,0,0,0,0,0,0,0,0,0,0,0,0,0,0,0,0,0,0,0,0],"sum_hessian":[1.4875E4,1.1699E4,3.176E3,5.444E3,6.255E3,2.455E3,7.21E2,1.862E3,3.582E3,5.726E3,5.29E2,1.469E3,9.86E2,3.65E2,3.56E2,7.75E2,1.087E3,1.895E3,1.687E3,9.91E2,4.735E3,1.59E2,3.7E2,6.35E2,8.34E2,4.35E2,5.51E2,1.93E2,1.72E2,1E0,3.55E2],"tree_param":{"num_deleted":"0","num_feature":"8","num_nodes":"31","size_leaf_vector":"0"}},{"base_weights":[1.482581E0,1.3105108E0,2.3028069E0,9.2314124E-1,1.8423572E0,1.5567908E0,3.3545294E0,1.4850923E0,7.9728186E-1,2.5268292E0,1.5737784E0,7.3622096E-1,1.8771929E0,2.8893106E0,3.874455E0,1.0542407E0,1.8770812E0,5.938806E-1,9.86641E-1,2.232198E0,3.0953722E0,1.4406824E0,2.4490232E0,5.732258E-1,1.0118377E0,1.5757664E0,2.186733E0,3.0257084E0,2.5606596E0,3.6001217E0,4.116525E0],"categories":[],"categories_nodes":[],"categories_segments":[],"categories_sizes":[],"default_left":[true,true,true,true,true,true,true,true,true,true,true,true,true,true,true,false,false,false,false,false,false,false,false,false,false,false,false,false,false,false,false],"id":6,"left_children":[1,3,5,7,9,11,13,15,17,19,21,23,25,27,29,-1,-1,-1,-1,-1,-1,-1,-1,-1,-1,-1,-1,-1,-1,-1,-1],"loss_changes":[2.0948809E3,2.5279375E3,2.0191211E3,5.0204932E2,9.502285E2,3.9583398E2,2.5723145E2,2.1920581E2,2.2337598E2,2.4338867E2,4.3230957E2,1.8949417E1,1.007124E2,2.4512207E1,3.199414E1,0E0,0E0,0E0,0E0,0E0,0E0,0E0,0E0,0E0,0E0,0E0,0E0,0E0,0E0,0E0,0E0],"parents":[2147483647,0,0,1,1,2,2,3,3,4,4,5,5,6,6,7,7,8,8,9,9,10,10,11,11,12,12,13,13,14,14],"right_children":[2,4,6,8,10,12,14,16,18,20,22,24,26,28,30,-1,-1,-1,-1,-1,-1,-1,-1,-1,-1,-1,-1,-1,-1,-1,-1],"split_conditions":[6.4148645E0,3.5534E0,6.32265E0,2.2386317E0,2.4461162E0,3.77175E0,7.8151503E0,2.57105E0,2.51935E0,4.73525E0,5.5871E0,3.1261E0,5.3138E0,-1.1789E2,9.06935E0,1.0542407E-2,1.877081E-2,5.9388056E-3,9.86641E-3,2.2321979E-2,3.0953722E-2,1.4406824E-2,2.4490232E-2,5.732258E-3,1.0118377E-2,1.5757663E-2,2.186733E-2,3.0257083E-2,2.5606595E-2,3.6001217E-2,4.116525E-2],"split_indices":[2,0,0,5,5,0,0,0,0,0,0,0,0,7,0,0,0,0,0,0,0,0,0,0,0,0,0,0,0,0,0],"split_type":[0,0,0,0,0,0,0,0,0,0,0,0,0,0,0,0,0,0,0,0,0,0,0,0,0,0,0,0,0,0,0],"sum_hessian":[1.4845E4,1.2271E4,2.574E3,7.1E3,5.171E3,1.506E3,1.068E3,1.299E3,5.801E3,1.457E3,3.714E3,4.23E2,1.083E3,5.64E2,5.04E2,6.19E2,6.8E2,2.797E3,3.004E3,9.6E2,4.97E2,3.224E3,4.9E2,2.66E2,1.57E2,5.49E2,5.34E2,3.98E2,1.66E2,2.37E2,2.67E2],"tree_param":{"num_deleted":"0","num_feature":"8","num_nodes":"31","size_leaf_vector":"0"}},{"base_weights":[1.461228E0,1.1506426E0,2.657896E0,1.6955773E0,1.0153551E0,2.9178855E0,2.2051876E0,1.915647E0,8.0374444E-1,1.075922E0,5.635056E-1,2.9969058E0,2.0073097E0,1.9858394E0,3.365473E0,1.4614222E0,2.405675E0,5.381647E-1,1.0644637E0,8.130437E-1,1.42875E0,3.6299273E-1,8.493781E-1,2.736785E0,3.8887708E0,1.7476882E0,2.779712E0,1.6963096E0,2.6086664E0,2.3384123E0,3.8346095E0],"categories":[],"categories_nodes":[],"categories_segments":[],"categories_sizes":[],"default_left":[true,true,true,true,true,true,true,true,true,true,true,true,true,true,true,false,false,false,false,false,false,false,false,false,false,false,false,false,false,false,false],"id":7,"left_children":[1,3,5,7,9,11,13,15,17,19,21,23,25,27,29,-1,-1,-1,-1,-1,-1,-1,-1,-1,-1,-1,-1,-1,-1,-1,-1],"loss_changes":[5.540924E3,8.7249316E2,3.609414E2,4.618745E2,2.5946484E2,1.3978711E2,2.8465918E2,4.1990723E2,3.221631E1,7.754756E2,6.423187E1,4.1538574E2,3.08172E1,1.6962378E2,8.4917725E1,0E0,0E0,0E0,0E0,0E0,0E0,0E0,0E0,0E0,0E0,0E0,0E0,0E0,0E0,0E0,0E0],"parents":[2147483647,0,0,1,1,2,2,3,3,4,4,5,5,6,6,7,7,8,8,9,9,10,10,11,11,12,12,13,13,14,14],"right_children":[2,4,6,8,10,12,14,16,18,20,22,24,26,28,30,-1,-1,-1,-1,-1,-1,-1,-1,-1,-1,-1,-1,-1,-1,-1,-1],"split_conditions":[5.07535E0,2.2964098E0,3.001636E0,3.7934998E1,3.8485E1,3.7955E1,7.9582753E0,3.1926E0,2.4619E0,3.4356499E0,3.06385E0,7.66455E0,6.30655E0,6.32225E0,7.73755E0,1.4614222E-2,2.405675E-2,5.3816466E-3,1.0644637E-2,8.130437E-3,1.42875E-2,3.6299273E-3,8.493781E-3,2.7367849E-2,3.8887706E-2,1.747688E-2,2.779712E-2,1.6963094E-2,2.6086664E-2,2.3384122E-2,3.8346093E-2],"split_indices":[0,5,5,6,6,6,2,0,0,0,0,0,0,0,0,0,0,0,0,0,0,0,0,0,0,0,0,0,0,0,0],"split_type":[0,0,0,0,0,0,0,0,0,0,0,0,0,0,0,0,0,0,0,0,0,0,0,0,0,0,0,0,0,0,0],"sum_hessian":[1.4909E4,1.1837E4,3.072E3,2.354E3,9.483E3,1.951E3,1.121E3,1.888E3,4.66E2,8.362E3,1.121E3,1.795E3,1.56E2,9.43E2,1.78E2,9.8E2,9.08E2,2.31E2,2.35E2,4.792E3,3.57E3,6.59E2,4.62E2,1.39E3,4.05E2,1.17E2,3.9E1,6.44E2,2.99E2,5.6E1,1.22E2],"tree_param":{"num_deleted":"0","num_feature":"8","num_nodes":"31","size_leaf_vector":"0"}},{"base_weights":[1.4450161E0,1.1445277E0,2.6165867E0,7.872953E-1,1.4749712E0,2.2671266E0,3.4984229E0,1.2875522E0,6.9970983E-1,2.161982E0,1.2869272E0,2.7536063E0,1.9177971E0,3.029853E0,3.754951E0,9.812453E-1,1.611471E0,5.2077156E-1,8.430629E-1,1.5353365E0,2.4775999E0,1.1214371E0,1.5276166E0,2.2218575E0,2.9550745E0,1.6219333E0,2.1991682E0,2.7258594E0,3.4568024E0,3.3350165E0,3.9043677E0],"categories":[],"categories_nodes":[],"categories_segments":[],"categories_sizes":[],"default_left":[true,true,true,true,true,true,true,true,true,true,true,true,true,true,true,false,false,false,false,false,false,false,false,false,false,false,false,false,false,false,false],"id":8,"left_children":[1,3,5,7,9,11,13,15,17,19,21,23,25,27,29,-1,-1,-1,-1,-1,-1,-1,-1,-1,-1,-1,-1,-1,-1,-1,-1],"loss_changes":[5.2152617E3,1.3917666E3,9.311328E2,2.4817139E2,7.910127E2,3.67583E2,1.02006836E2,8.359241E1,1.23649414E2,2.5991846E2,1.913833E2,9.630713E1,1.04626465E2,3.8526855E1,3.3464844E1,0E0,0E0,0E0,0E0,0E0,0E0,0E0,0E0,0E0,0E0,0E0,0E0,0E0,0E0,0E0,0E0],"parents":[2147483647,0,0,1,1,2,2,3,3,4,4,5,5,6,6,7,7,8,8,9,9,10,10,11,11,12,12,13,13,14,14],"right_children":[2,4,6,8,10,12,14,16,18,20,22,24,26,28,30,-1,-1,-1,-1,-1,-1,-1,-1,-1,-1,-1,-1,-1,-1,-1,-1],"split_conditions":[5.07535E0,3.0732E0,6.9925003E0,2.1588216E0,2.35006E0,2.7459521E0,7.8151503E0,2.3698502E0,2.2213001E0,2.15E1,4.0969E0,1.95E1,5.7236E0,2.65E1,1.85E1,9.812453E-3,1.611471E-2,5.2077156E-3,8.430629E-3,1.5353365E-2,2.4775999E-2,1.1214371E-2,1.5276166E-2,2.2218576E-2,2.9550744E-2,1.6219333E-2,2.1991681E-2,2.7258594E-2,3.4568023E-2,3.3350166E-2,3.9043676E-2],"split_indices":[0,0,0,5,5,5,0,0,0,1,0,1,0,1,1,0,0,0,0,0,0,0,0,0,0,0,0,0,0,0,0],"split_type":[0,0,0,0,0,0,0,0,0,0,0,0,0,0,0,0,0,0,0,0,0,0,0,0,0,0,0,0,0,0,0],"sum_hessian":[1.4815E4,1.1791E4,3.024E3,5.666E3,6.125E3,2.166E3,8.58E2,8.44E2,4.822E3,1.316E3,4.809E3,9.05E2,1.261E3,3.04E2,5.54E2,4.34E2,4.1E2,2.145E3,2.677E3,4.41E2,8.75E2,2.85E3,1.959E3,2.49E2,6.56E2,6.15E2,6.46E2,1.78E2,1.26E2,1.46E2,4.08E2],"tree_param":{"num_deleted":"0","num_feature":"8","num_nodes":"31","size_leaf_vector":"0"}},{"base_weights":[1.4263899E0,1.2574242E0,2.1952372E0,1.7500448E0,1.0640968E0,2.4361439E0,1.170158E0,1.2970046E0,2.4879057E0,8.0054855E-1,1.6221337E0,1.6977949E0,3.2695377E0,6.9392174E-1,1.6204106E0,9.5396507E-1,1.6256721E0,1.6985404E0,2.7364788E0,5.955502E-1,1.0099257E0,1.4827689E0,2.3208866E0,9.274182E-1,2.006548E0,2.803347E0,3.7967303E0,4.9823874E-1,9.578339E-1,1.4475939E0,2.491159E0],"categories":[],"categories_nodes":[],"categories_segments":[],"categories_sizes":[],"default_left":[true,true,true,true,true,true,true,true,true,true,true,true,true,true,true,false,false,false,false,false,false,false,false,false,false,false,false,false,false,false,false],"id":9,"left_children":[1,3,5,7,9,11,13,15,17,19,21,23,25,27,29,-1,-1,-1,-1,-1,-1,-1,-1,-1,-1,-1,-1,-1,-1,-1,-1],"loss_changes":[1.924334E3,1.1565742E3,6.588447E2,1.1439531E3,1.2827734E3,1.3292461E3,1.0883765E2,2.3899023E2,2.5502588E2,2.5425684E2,2.7213916E2,2.7242065E2,2.4841895E2,1.2713295E1,3.8929688E1,0E0,0E0,0E0,0E0,0E0,0E0,0E0,0E0,0E0,0E0,0E0,0E0,0E0,0E0,0E0,0E0],"parents":[2147483647,0,0,1,1,2,2,3,3,4,4,5,5,6,6,7,7,8,8,9,9,10,10,11,11,12,12,13,13,14,14],"right_children":[2,4,6,8,10,12,14,16,18,20,22,24,26,28,30,-1,-1,-1,-1,-1,-1,-1,-1,-1,-1,-1,-1,-1,-1,-1,-1],"split_conditions":[6.3808055E0,2.4475315E0,3.7985E1,3.6533E0,3.935E0,6.3577003E0,4.39295E0,2.6708999E0,1.75E1,2.6946502E0,5.5753E0,4.17295E0,7.8151503E0,3.3021E0,6.3227E0,9.539651E-3,1.625672E-2,1.6985403E-2,2.7364787E-2,5.9555015E-3,1.0099257E-2,1.4827688E-2,2.3208866E-2,9.274182E-3,2.0065479E-2,2.803347E-2,3.7967302E-2,4.982387E-3,9.578339E-3,1.4475939E-2,2.491159E-2],"split_indices":[2,5,6,0,0,0,0,0,1,0,0,0,0,0,0,0,0,0,0,0,0,0,0,0,0,0,0,0,0,0,0],"split_type":[0,0,0,0,0,0,0,0,0,0,0,0,0,0,0,0,0,0,0,0,0,0,0,0,0,0,0,0,0,0,0],"sum_hessian":[1.4815E4,1.2146E4,2.669E3,3.423E3,8.723E3,2.161E3,5.08E2,2.121E3,1.302E3,5.925E3,2.798E3,1.146E3,1.015E3,2.47E2,2.61E2,1.038E3,1.083E3,3.12E2,9.9E2,2.994E3,2.931E3,2.333E3,4.65E2,3.28E2,8.18E2,5.39E2,4.76E2,1.42E2,1.05E2,2.18E2,4.3E1],"tree_param":{"num_deleted":"0","num_feature":"8","num_nodes":"31","size_leaf_vector":"0"}},{"base_weights":[1.4207299E0,1.2546438E0,2.1731055E0,1.752071E0,1.0593948E0,2.4312503E0,1.1378633E0,1.1397613E0,2.2965906E0,7.983798E-1,1.6118659E0,1.7031796E0,3.2337317E0,7.388767E-1,2.1756425E0,1.4502989E0,8.72327E-1,2.0472898E0,2.9478042E0,5.6080943E-1,9.734466E-1,1.4749167E0,2.3214693E0,1.3386316E0,2.1047409E0,2.7622066E0,3.7330632E0,4.9427646E-1,1.0096481E0,2.5806968E0,1.3197478E0],"categories":[],"categories_nodes":[],"categories_segments":[],"categories_sizes":[],"default_left":[true,true,true,true,true,true,true,true,true,true,true,true,true,true,true,false,false,false,false,false,false,false,false,false,false,false,false,false,false,false,false],"id":10,"left_children":[1,3,5,7,9,11,13,15,17,19,21,23,25,27,29,-1,-1,-1,-1,-1,-1,-1,-1,-1,-1,-1,-1,-1,-1,-1,-1],"loss_changes":[1.8587578E3,1.1834512E3,7.1863184E2,1.1450498E3,1.2619531E3,1.2574277E3,2.222309E2,1.341709E2,2.9456152E2,2.471648E2,2.7254834E2,1.6500537E2,2.4008984E2,2.5654251E1,5.1349915E1,0E0,0E0,0E0,0E0,0E0,0E0,0E0,0E0,0E0,0E0,0E0,0E0,0E0,0E0,0E0,0E0],"parents":[2147483647,0,0,1,1,2,2,3,3,4,4,5,5,6,6,7,7,8,8,9,9,10,10,11,11,12,12,13,13,14,14],"right_children":[2,4,6,8,10,12,14,16,18,20,22,24,26,28,30,-1,-1,-1,-1,-1,-1,-1,-1,-1,-1,-1,-1,-1,-1,-1,-1],"split_conditions":[6.3743052E0,2.4461162E0,1.2186903E0,3.1852E0,3.9288E0,6.3311E0,4.2096E0,4.320406E0,4.6832504E0,2.5244E0,5.5872498E0,5.33475E0,7.7740498E0,3.0085502E0,1.8099248E0,1.4502989E-2,8.72327E-3,2.0472897E-2,2.9478041E-2,5.6080944E-3,9.734466E-3,1.4749167E-2,2.3214692E-2,1.3386316E-2,2.1047408E-2,2.7622065E-2,3.733063E-2,4.9427645E-3,1.0096481E-2,2.5806967E-2,1.3197478E-2],"split_indices":[2,5,3,0,0,0,0,2,0,0,0,0,0,0,3,0,0,0,0,0,0,0,0,0,0,0,0,0,0,0,0],"split_type":[0,0,0,0,0,0,0,0,0,0,0,0,0,0,0,0,0,0,0,0,0,0,0,0,0,0,0,0,0,0,0],"sum_hessian":[1.4877E4,1.2187E4,2.69E3,3.435E3,8.752E3,2.153E3,5.37E2,1.617E3,1.818E3,5.944E3,2.808E3,1.129E3,1.024E3,3.88E2,1.49E2,7.48E2,8.69E2,1.315E3,5.03E2,2.522E3,3.422E3,2.354E3,4.54E2,5.92E2,5.37E2,5.27E2,4.97E2,2.04E2,1.84E2,1.01E2,4.8E1],"tree_param":{"num_deleted":"0","num_feature":"8","num_nodes":"31","size_leaf_vector":"0"}},{"base_weights":[1.4028202E0,1.1032798E0,2.5188355E0,7.59029E-1,1.4226841E0,2.1601915E0,3.3347495E0,1.006348E0,5.787619E-1,2.0484793E0,1.217474E0,2.6383922E0,1.8358092E0,2.8800623E0,3.6565185E0,7.891544E-1,1.2630441E0,3.787809E-1,7.599545E-1,2.1941085E0,1.1149629E0,1.0723825E0,1.4563277E0,2.7250745E0,1.8147099E0,1.5913247E0,2.1004024E0,1.9709265E0,2.930301E0,3.4088423E0,3.892528E0],"categories":[],"categories_nodes":[],"categories_segments":[],"categories_sizes":[],"default_left":[true,true,true,true,true,true,true,true,true,true,true,true,true,true,true,false,false,false,false,false,false,false,false,false,false,false,false,false,false,false,false],"id":11,"left_children":[1,3,5,7,9,11,13,15,17,19,21,23,25,27,29,-1,-1,-1,-1,-1,-1,-1,-1,-1,-1,-1,-1,-1,-1,-1,-1],"loss_changes":[4.952621E3,1.2842891E3,9.166797E2,2.5059448E2,7.778574E2,3.3738184E2,1.3897461E2,1.3204004E2,1.178114E2,2.0314648E2,1.5798096E2,6.234326E1,8.363818E1,1.755957E1,3.1413086E1,0E0,0E0,0E0,0E0,0E0,0E0,0E0,0E0,0E0,0E0,0E0,0E0,0E0,0E0,0E0,0E0],"parents":[2147483647,0,0,1,1,2,2,3,3,4,4,5,5,6,6,7,7,8,8,9,9,10,10,11,11,12,12,13,13,14,14],"right_children":[2,4,6,8,10,12,14,16,18,20,22,24,26,28,30,-1,-1,-1,-1,-1,-1,-1,-1,-1,-1,-1,-1,-1,-1,-1,-1],"split_conditions":[5.0286503E0,3.0705E0,6.8195496E0,4.3142715E0,2.396383E0,2.7395387E0,7.8151503E0,2.2292E0,2.3691502E0,3.7934998E1,4.11975E0,3.7934998E1,5.71585E0,3.395E2,9.07415E0,7.891544E-3,1.2630441E-2,3.7878088E-3,7.599545E-3,2.1941084E-2,1.1149629E-2,1.0723825E-2,1.4563276E-2,2.7250744E-2,1.8147098E-2,1.5913246E-2,2.1004023E-2,1.9709265E-2,2.9303009E-2,3.408842E-2,3.892528E-2],"split_indices":[0,0,0,2,5,5,0,0,0,6,0,6,0,4,0,0,0,0,0,0,0,0,0,0,0,0,0,0,0,0,0],"split_type":[0,0,0,0,0,0,0,0,0,0,0,0,0,0,0,0,0,0,0,0,0,0,0,0,0,0,0,0,0,0,0],"sum_hessian":[1.4816E4,1.1681E4,3.135E3,5.622E3,6.059E3,2.178E3,9.57E2,2.37E3,3.252E3,1.496E3,4.563E3,8.8E2,1.298E3,3.97E2,5.6E2,1.284E3,1.086E3,1.546E3,1.706E3,1.294E3,2.02E2,2.839E3,1.724E3,7.96E2,8.4E1,6.75E2,6.23E2,2.1E1,3.76E2,2.74E2,2.86E2],"tree_param":{"num_deleted":"0","num_feature":"8","num_nodes":"31","size_leaf_vector":"0"}},{"base_weights":[1.3973639E0,1.2310233E0,2.168509E0,1.7145398E0,1.0415808E0,1.9404995E0,2.826557E0,1.2521136E0,1.9228433E0,9.2543966E-1,1.2799692E0,2.2688544E0,1.2624394E0,3.0757327E0,1.6914213E0,8.7303364E-1,1.7050207E0,1.4472976E0,2.7384284E0,6.3560444E-1,1.2276955E0,7.787132E-1,1.7461075E0,1.6180955E0,2.9242265E0,8.4781927E-1,2.520712E0,1.9717169E0,3.5381756E0,1.0885279E0,3.4520142E0],"categories":[],"categories_nodes":[],"categories_segments":[],"categories_sizes":[],"default_left":[true,true,true,true,true,true,true,true,true,true,true,true,true,true,true,false,false,false,false,false,false,false,false,false,false,false,false,false,false,false,false],"id":12,"left_children":[1,3,5,7,9,11,13,15,17,19,21,23,25,27,29,-1,-1,-1,-1,-1,-1,-1,-1,-1,-1,-1,-1,-1,-1,-1,-1],"loss_changes":[1.9026719E3,1.1176094E3,3.9437402E2,3.306455E2,2.4264062E2,4.3500586E2,1.909961E2,1.8305945E2,9.180664E2,5.164463E2,6.7094336E2,5.6125586E2,3.3268622E2,2.8270557E2,1.2922726E2,0E0,0E0,0E0,0E0,0E0,0E0,0E0,0E0,0E0,0E0,0E0,0E0,0E0,0E0,0E0,0E0],"parents":[2147483647,0,0,1,1,2,2,3,3,4,4,5,5,6,6,7,7,8,8,9,9,10,10,11,11,12,12,13,13,14,14],"right_children":[2,4,6,8,10,12,14,16,18,20,22,24,26,28,30,-1,-1,-1,-1,-1,-1,-1,-1,-1,-1,-1,-1,-1,-1,-1,-1],"split_conditions":[6.3743052E0,2.4461162E0,3.05E1,2.15E1,5.4712877E0,1.1147285E0,1.1552079E0,3.34345E0,3.6884E0,2.8402E0,4.22335E0,6.32225E0,5.0944E0,5.7148E0,5.0188E0,8.730336E-3,1.7050207E-2,1.4472975E-2,2.7384283E-2,6.356044E-3,1.2276954E-2,7.787132E-3,1.7461075E-2,1.6180955E-2,2.9242264E-2,8.478193E-3,2.5207119E-2,1.9717168E-2,3.5381757E-2,1.0885279E-2,3.452014E-2],"split_indices":[2,5,1,1,2,3,3,0,0,0,0,0,0,0,0,0,0,0,0,0,0,0,0,0,0,0,0,0,0,0,0],"split_type":[0,0,0,0,0,0,0,0,0,0,0,0,0,0,0,0,0,0,0,0,0,0,0,0,0,0,0,0,0,0,0],"sum_hessian":[1.4835E4,1.2203E4,2.632E3,3.435E3,8.768E3,1.955E3,6.77E2,1.067E3,2.368E3,5.896E3,2.872E3,1.317E3,6.38E2,5.55E2,1.22E2,5.81E2,4.86E2,1.496E3,8.72E2,3.01E3,2.886E3,1.384E3,1.488E3,6.61E2,6.56E2,4.8E2,1.58E2,1.64E2,3.91E2,9.1E1,3.1E1],"tree_param":{"num_deleted":"0","num_feature":"8","num_nodes":"31","size_leaf_vector":"0"}},{"base_weights":[1.3679215E0,1.0367225E0,2.3309512E0,6.8688834E-1,1.3001827E0,1.9441547E0,3.0675578E0,1.0949135E0,5.554133E-1,2.0396304E0,1.1625037E0,2.5578697E0,1.7012969E0,2.6957462E0,3.576695E0,1.3800353E0,8.461738E-1,3.586526E-1,7.1374834E-1,2.2061698E0,1.2279129E0,1.0185927E0,1.3620692E0,2.6488793E0,1.5220002E0,1.9332026E0,1.5283319E0,3.1491148E0,2.4607217E0,3.3782263E0,3.7887874E0],"categories":[],"categories_nodes":[],"categories_segments":[],"categories_sizes":[],"default_left":[true,true,true,true,true,true,true,true,true,true,true,true,true,true,true,false,false,false,false,false,false,false,false,false,false,false,false,false,false,false,false],"id":13,"left_children":[1,3,5,7,9,11,13,15,17,19,21,23,25,27,29,-1,-1,-1,-1,-1,-1,-1,-1,-1,-1,-1,-1,-1,-1,-1,-1],"loss_changes":[4.7212754E3,1.01514355E3,1.0786973E3,2.5379321E2,6.394219E2,3.698086E2,2.4590625E2,8.166235E1,1.1147803E2,1.330332E2,1.5199268E2,6.59751E1,7.110693E1,7.957666E1,2.1875977E1,0E0,0E0,0E0,0E0,0E0,0E0,0E0,0E0,0E0,0E0,0E0,0E0,0E0,0E0,0E0,0E0],"parents":[2147483647,0,0,1,1,2,2,3,3,4,4,5,5,6,6,7,7,8,8,9,9,10,10,11,11,12,12,13,13,14,14],"right_children":[2,4,6,8,10,12,14,16,18,20,22,24,26,28,30,-1,-1,-1,-1,-1,-1,-1,-1,-1,-1,-1,-1,-1,-1,-1,-1],"split_conditions":[4.69985E0,2.83115E0,6.32265E0,3.7969155E0,2.2123966E0,2.5755472E0,7.8151503E0,3.0794344E0,2.1469E0,3.7815002E1,3.8157E0,3.7955E1,2.9729586E0,2.6614041E0,9.06935E0,1.3800353E-2,8.461738E-3,3.5865258E-3,7.137483E-3,2.2061698E-2,1.2279129E-2,1.0185927E-2,1.3620692E-2,2.6488792E-2,1.5220001E-2,1.9332025E-2,1.5283318E-2,3.149115E-2,2.4607217E-2,3.3782262E-2,3.788787E-2],"split_indices":[0,0,0,2,5,5,0,5,0,6,0,6,5,5,0,0,0,0,0,0,0,0,0,0,0,0,0,0,0,0,0],"split_type":[0,0,0,0,0,0,0,0,0,0,0,0,0,0,0,0,0,0,0,0,0,0,0,0,0,0,0,0,0,0,0],"sum_hessian":[1.4803E4,1.1015E4,3.788E3,4.732E3,6.283E3,2.484E3,1.304E3,1.153E3,3.579E3,9.86E2,5.297E3,7.04E2,1.78E3,7.54E2,5.5E2,5.37E2,6.16E2,1.596E3,1.983E3,8.18E2,1.68E2,3.078E3,2.219E3,6.47E2,5.7E1,7.6E2,1.02E3,2.57E2,4.97E2,2.85E2,2.65E2],"tree_param":{"num_deleted":"0","num_feature":"8","num_nodes":"31","size_leaf_vector":"0"}},{"base_weights":[1.3664033E0,1.076957E0,2.4722817E0,7.53969E-1,1.3959732E0,2.1603699E0,3.3852E0,1.0015824E0,5.678424E-1,1.2959099E0,1.9475018E0,1.9240407E0,2.5267677E0,3.1295552E0,3.7527452E0,1.8805665E0,9.554965E-1,7.823904E-1,4.6005207E-1,1.3791324E0,8.955121E-1,2.6021538E0,1.6678995E0,1.984103E0,1.5178223E0,2.4316745E0,3.11483E0,2.839769E0,3.578507E0,1.5279772E0,3.8021543E0],"categories":[],"categories_nodes":[],"categories_segments":[],"categories_sizes":[],"default_left":[true,true,true,true,true,true,true,true,true,true,true,true,true,true,true,false,false,false,false,false,false,false,false,false,false,false,false,false,false,false,false],"id":14,"left_children":[1,3,5,7,9,11,13,15,17,19,21,23,25,27,29,-1,-1,-1,-1,-1,-1,-1,-1,-1,-1,-1,-1,-1,-1,-1,-1],"loss_changes":[4.7217676E3,1.2046309E3,8.706328E2,2.6771558E2,3.2436816E2,1.9703516E2,7.203027E1,1.00812744E2,7.66759E1,1.6579004E2,1.6487134E2,3.3541992E1,4.92417E1,5.8842773E1,3.4495605E1,0E0,0E0,0E0,0E0,0E0,0E0,0E0,0E0,0E0,0E0,0E0,0E0,0E0,0E0,0E0,0E0],"parents":[2147483647,0,0,1,1,2,2,3,3,4,4,5,5,6,6,7,7,8,8,9,9,10,10,11,11,12,12,13,13,14,14],"right_children":[2,4,6,8,10,12,14,16,18,20,22,24,26,28,30,-1,-1,-1,-1,-1,-1,-1,-1,-1,-1,-1,-1,-1,-1,-1,-1],"split_conditions":[5.07535E0,3.1261E0,7.2644997E0,4.3348637E0,4.25E1,2.75E1,8.79825E0,-1.22375E2,3.4455E1,3.7975E1,-1.22345E2,3.7965E1,4.75E1,2.85E1,5.7E1,1.8805664E-2,9.5549645E-3,7.823904E-3,4.6005207E-3,1.3791324E-2,8.955121E-3,2.6021536E-2,1.6678995E-2,1.9841028E-2,1.5178222E-2,2.4316745E-2,3.11483E-2,2.8397689E-2,3.5785068E-2,1.5279772E-2,3.8021542E-2],"split_indices":[0,0,0,2,1,1,0,7,6,6,7,6,1,1,4,0,0,0,0,0,0,0,0,0,0,0,0,0,0,0,0],"split_type":[0,0,0,0,0,0,0,0,0,0,0,0,0,0,0,0,0,0,0,0,0,0,0,0,0,0,0,0,0,0,0],"sum_hessian":[1.4752E4,1.1692E4,3.06E3,5.81E3,5.882E3,2.281E3,7.79E2,2.493E3,3.317E3,4.979E3,9.03E2,1.387E3,8.94E2,4.6E2,3.19E2,1.24E2,2.369E3,1.109E3,2.208E3,4.122E3,8.57E2,2.7E2,6.33E2,1.208E3,1.79E2,7.7E2,1.24E2,2.8E2,1.8E2,7E0,3.12E2],"tree_param":{"num_deleted":"0","num_feature":"8","num_nodes":"31","size_leaf_vector":"0"}},{"base_weights":[1.3519301E0,1.2038755E0,2.1429045E0,1.535952E0,1.104945E0,2.4263494E0,1.10333E0,7.408336E-1,1.6544682E0,6.385817E-1,1.3154004E0,2.180151E0,3.1357052E0,1.1554991E0,6.597754E-2,4.0204266E-1,1.1056937E0,2.3596115E0,1.4325587E0,1.1325257E0,5.722828E-1,2.037766E0,1.103501E0,1.9190412E0,2.717042E0,2.8781598E0,3.7276146E0,1.5511792E0,9.379559E-1,3.8568658E-1,4.3501754E-4],"categories":[],"categories_nodes":[],"categories_segments":[],"categories_sizes":[],"default_left":[true,true,true,true,true,true,true,true,true,true,true,true,true,true,true,false,false,false,false,false,false,false,false,false,false,false,false,false,false,false,false],"id":15,"left_children":[1,3,5,7,9,11,13,15,17,19,21,23,25,27,29,-1,-1,-1,-1,-1,-1,-1,-1,-1,-1,-1,-1,-1,-1,-1,-1],"loss_changes":[1.736457E3,4.1022656E2,6.8868164E2,2.7005713E2,9.4460645E2,3.2015137E2,2.7110779E1,4.595131E1,3.9009033E2,9.7953E1,1.01494336E3,1.907085E2,7.104834E1,4.092206E1,5.049876E-1,0E0,0E0,0E0,0E0,0E0,0E0,0E0,0E0,0E0,0E0,0E0,0E0,0E0,0E0,0E0,0E0],"parents":[2147483647,0,0,1,1,2,2,3,3,4,4,5,5,6,6,7,7,8,8,9,9,10,10,11,11,12,12,13,13,14,14],"right_children":[2,4,6,8,10,12,14,16,18,20,22,24,26,28,30,-1,-1,-1,-1,-1,-1,-1,-1,-1,-1,-1,-1,-1,-1,-1,-1],"split_conditions":[6.493723E0,-1.21865005E2,1.2180679E0,-1.22615005E2,-1.18895004E2,7.600795E0,-1.16275E2,-1.22895004E2,-1.22405E2,-1.21655E2,-1.18305E2,2.75E1,2.95E1,1.460032E0,1.4575784E0,4.0204264E-3,1.1056936E-2,2.3596115E-2,1.4325586E-2,1.1325257E-2,5.7228277E-3,2.037766E-2,1.1035009E-2,1.9190412E-2,2.717042E-2,2.8781597E-2,3.7276145E-2,1.5511791E-2,9.379559E-3,3.8568657E-3,4.3501755E-6],"split_indices":[2,7,3,7,7,2,7,7,7,7,7,1,1,3,3,0,0,0,0,0,0,0,0,0,0,0,0,0,0,0,0],"split_type":[0,0,0,0,0,0,0,0,0,0,0,0,0,0,0,0,0,0,0,0,0,0,0,0,0,0,0,0,0,0,0],"sum_hessian":[1.483E4,1.2492E4,2.338E3,2.867E3,9.625E3,1.837E3,5.01E2,3.72E2,2.495E3,2.993E3,6.632E3,1.364E3,4.73E2,4.77E2,2.4E1,1.93E2,1.79E2,5.97E2,1.898E3,3.54E2,2.639E3,1.504E3,5.128E3,9.18E2,4.46E2,3.3E2,1.43E2,1.69E2,3.08E2,4E0,2E1],"tree_param":{"num_deleted":"0","num_feature":"8","num_nodes":"31","size_leaf_vector":"0"}},{"base_weights":[1.3342445E0,1.1677454E0,1.9837118E0,1.6318694E0,9.606024E-1,2.2150645E0,1.0375844E0,1.8565686E0,6.9554603E-1,1.032925E0,5.4946697E-1,2.4448035E0,1.394571E0,1.3148335E0,5.608392E-1,2.0342815E0,1.1289457E0,9.746982E-1,5.9897393E-1,1.5350603E0,9.312623E-1,4.2619148E-1,7.3251003E-1,2.13123E0,2.8162131E0,1.5960075E0,6.741604E-1,1.8084749E0,1.061467E0,3.554594E-1,7.811761E-1],"categories":[],"categories_nodes":[],"categories_segments":[],"categories_sizes":[],"default_left":[true,true,true,true,true,true,true,true,true,true,true,true,true,true,true,false,false,false,false,false,false,false,false,false,false,false,false,false,false,false,false],"id":16,"left_children":[1,3,5,7,9,11,13,15,17,19,21,23,25,27,29,-1,-1,-1,-1,-1,-1,-1,-1,-1,-1,-1,-1,-1,-1,-1,-1],"loss_changes":[1.6125156E3,1.1411318E3,6.658711E2,7.705547E2,2.4400635E2,4.6055957E2,7.8981384E1,3.817588E2,1.905774E1,3.5618018E2,2.7680542E1,2.218584E2,7.7544556E1,4.709784E1,9.932365E0,0E0,0E0,0E0,0E0,0E0,0E0,0E0,0E0,0E0,0E0,0E0,0E0,0E0,0E0,0E0,0E0],"parents":[2147483647,0,0,1,1,2,2,3,3,4,4,5,5,6,6,7,7,8,8,9,9,10,10,11,11,12,12,13,13,14,14],"right_children":[2,4,6,8,10,12,14,16,18,20,22,24,26,28,30,-1,-1,-1,-1,-1,-1,-1,-1,-1,-1,-1,-1,-1,-1,-1,-1],"split_conditions":[6.252226E0,2.4778621E0,3.7985E1,3.7934998E1,3.7915E1,-1.17575E2,3.8825E1,-1.17765E2,-1.22395004E2,-1.21455E2,5.543116E0,7.004097E0,-1.16865005E2,-1.22115005E2,-1.2122E2,2.0342814E-2,1.1289457E-2,9.746982E-3,5.989739E-3,1.5350603E-2,9.312623E-3,4.2619146E-3,7.3251002E-3,2.13123E-2,2.8162131E-2,1.5960075E-2,6.741604E-3,1.8084748E-2,1.061467E-2,3.5545938E-3,7.8117605E-3],"split_indices":[2,5,6,6,6,7,6,7,7,7,2,2,7,7,7,0,0,0,0,0,0,0,0,0,0,0,0,0,0,0,0],"split_type":[0,0,0,0,0,0,0,0,0,0,0,0,0,0,0,0,0,0,0,0,0,0,0,0,0,0,0,0,0,0,0],"sum_hessian":[1.4914E4,1.1871E4,3.043E3,3.663E3,8.208E3,2.445E3,5.98E2,2.954E3,7.09E2,6.98E3,1.228E3,1.91E3,5.35E2,3.78E2,2.2E2,2.374E3,5.8E2,1.82E2,5.27E2,1.175E3,5.805E3,7.34E2,4.94E2,1.036E3,8.74E2,4.18E2,1.17E2,1.28E2,2.5E2,1.14E2,1.06E2],"tree_param":{"num_deleted":"0","num_feature":"8","num_nodes":"31","size_leaf_vector":"0"}},{"base_weights":[1.3208178E0,1.0341374E0,2.3905988E0,7.1606785E-1,1.3534946E0,2.0612402E0,3.19366E0,9.5579463E-1,5.463954E-1,1.4411649E0,8.9340204E-1,1.8461072E0,2.3327835E0,2.7408726E0,3.4681497E0,6.9885504E-1,1.2227757E0,3.5454687E-1,7.157313E-1,2.0235717E0,1.2146409E0,7.8422475E-1,1.1362497E0,2.4764218E0,1.5918809E0,2.9851286E0,2.0869725E0,2.972709E0,2.430481E0,3.2419977E0,3.6499972E0],"categories":[],"categories_nodes":[],"categories_segments":[],"categories_sizes":[],"default_left":[true,true,true,true,true,true,true,true,true,true,true,true,true,true,true,false,false,false,false,false,false,false,false,false,false,false,false,false,false,false,false],"id":17,"left_children":[1,3,5,7,9,11,13,15,17,19,21,23,25,27,29,-1,-1,-1,-1,-1,-1,-1,-1,-1,-1,-1,-1,-1,-1,-1,-1],"loss_changes":[4.5565137E3,1.1902021E3,8.298828E2,2.3875464E2,2.3572168E2,1.2967188E2,1.1253418E2,1.6682056E2,1.11667725E2,6.476719E2,2.4730103E1,1.9880273E2,1.5718115E2,2.4111084E1,2.2179688E1,0E0,0E0,0E0,0E0,0E0,0E0,0E0,0E0,0E0,0E0,0E0,0E0,0E0,0E0,0E0,0E0],"parents":[2147483647,0,0,1,1,2,2,3,3,4,4,5,5,6,6,7,7,8,8,9,9,10,10,11,11,12,12,13,13,14,14],"right_children":[2,4,6,8,10,12,14,16,18,20,22,24,26,28,30,-1,-1,-1,-1,-1,-1,-1,-1,-1,-1,-1,-1,-1,-1,-1,-1],"split_conditions":[5.04705E0,3.1287498E0,6.8683E0,4.3112516E0,3.7945E1,5.7911997E0,7.7342E0,2.21365E0,2.411E0,2.4454513E0,4.16445E0,2.5755472E0,2.5991912E0,2.905517E0,8.79855E0,6.98855E-3,1.2227757E-2,3.5454687E-3,7.157313E-3,2.0235717E-2,1.2146409E-2,7.842247E-3,1.1362497E-2,2.4764217E-2,1.5918808E-2,2.9851286E-2,2.0869724E-2,2.9727088E-2,2.4304809E-2,3.2419976E-2,3.6499973E-2],"split_indices":[0,0,0,2,6,0,0,0,0,5,0,5,5,5,0,0,0,0,0,0,0,0,0,0,0,0,0,0,0,0,0],"split_type":[0,0,0,0,0,0,0,0,0,0,0,0,0,0,0,0,0,0,0,0,0,0,0,0,0,0,0,0,0,0,0],"sum_hessian":[1.4858E4,1.1718E4,3.14E3,5.871E3,5.847E3,2.227E3,9.13E2,2.433E3,3.438E3,4.911E3,9.36E2,1.243E3,9.84E2,3.45E2,5.68E2,1.24E3,1.193E3,1.612E3,1.826E3,1.375E3,3.536E3,6.46E2,2.9E2,3.57E2,8.86E2,2.69E2,7.15E2,1.97E2,1.48E2,2.54E2,3.14E2],"tree_param":{"num_deleted":"0","num_feature":"8","num_nodes":"31","size_leaf_vector":"0"}},{"base_weights":[1.3121389E0,1.4339983E0,7.0940095E-1,1.1311125E0,2.4243371E0,5.1835406E-1,1.3758066E0,7.863501E-1,1.4275062E0,2.1839406E0,3.4379096E0,3.5479024E-1,7.142376E-1,2.048815E0,1.1657504E0,2.1384823E0,7.5002974E-1,2.4027297E0,1.3375899E0,1.9000705E0,2.4526043E0,3.0544662E0,3.6093721E0,3.5101777E-1,3.9718814E0,1.025372E0,6.1240053E-1,1.6594822E0,2.733375E0,1.0512931E0,1.8367932E0],"categories":[],"categories_nodes":[],"categories_segments":[],"categories_sizes":[],"default_left":[true,true,true,true,true,true,true,true,true,true,true,true,true,true,true,false,false,false,false,false,false,false,false,false,false,false,false,false,false,false,false],"id":18,"left_children":[1,3,5,7,9,11,13,15,17,19,21,23,25,27,29,-1,-1,-1,-1,-1,-1,-1,-1,-1,-1,-1,-1,-1,-1,-1,-1],"loss_changes":[1.0978281E3,3.7294531E3,3.2001062E2,9.7290625E2,7.088086E2,6.2583008E1,7.894226E1,2.1602637E2,4.4865332E2,1.7907129E2,3.5590332E1,1.4394241E1,2.8108368E1,3.5020447E1,3.2610596E1,0E0,0E0,0E0,0E0,0E0,0E0,0E0,0E0,0E0,0E0,0E0,0E0,0E0,0E0,0E0,0E0],"parents":[2147483647,0,0,1,1,2,2,3,3,4,4,5,5,6,6,7,7,8,8,9,9,10,10,11,11,12,12,13,13,14,14],"right_children":[2,4,6,8,10,12,14,16,18,20,22,24,26,28,30,-1,-1,-1,-1,-1,-1,-1,-1,-1,-1,-1,-1,-1,-1,-1,-1],"split_conditions":[3.7934998E1,5.0319996E0,4.16445E0,3.0742998E0,7.7457E0,2.85355E0,-1.2239E2,-1.22375E2,-1.22255005E2,5.7911997E0,1.85E1,1.7670034E1,-1.22395004E2,5.4244E0,6.0823E0,2.1384822E-2,7.5002974E-3,2.4027297E-2,1.3375898E-2,1.9000705E-2,2.4526043E-2,3.0544661E-2,3.609372E-2,3.5101776E-3,3.9718814E-2,1.025372E-2,6.124005E-3,1.6594822E-2,2.733375E-2,1.0512931E-2,1.8367931E-2],"split_indices":[6,0,0,0,0,0,7,7,7,0,1,3,7,0,0,0,0,0,0,0,0,0,0,0,0,0,0,0,0,0,0],"split_type":[0,0,0,0,0,0,0,0,0,0,0,0,0,0,0,0,0,0,0,0,0,0,0,0,0,0,0,0,0,0,0],"sum_hessian":[1.4948E4,1.2434E4,2.514E3,9.522E3,2.912E3,1.954E3,5.6E2,4.402E3,5.12E3,2.354E3,5.58E2,1.065E3,8.89E2,1.33E2,4.27E2,1.15E2,4.287E3,4.32E2,4.688E3,1.145E3,1.209E3,1.73E2,3.85E2,1.064E3,1E0,2.19E2,6.7E2,8.5E1,4.8E1,3.65E2,6.2E1],"tree_param":{"num_deleted":"0","num_feature":"8","num_nodes":"31","size_leaf_vector":"0"}},{"base_weights":[1.2938368E0,9.95788E-1,2.2822967E0,6.86562E-1,1.295058E0,1.9633366E0,3.1099734E0,9.1387016E-1,5.118456E-1,1.1825831E0,1.7286743E0,1.7385029E0,2.2892199E0,2.667178E0,3.4353232E0,6.8794525E-1,1.1690105E0,3.3197647E-1,6.704246E-1,1.2644365E0,8.3362347E-1,2.4013293E0,1.5135988E0,1.5301404E0,1.9872189E0,2.0254116E0,2.6713207E0,3.0080605E0,2.533567E0,3.2130115E0,3.6477485E0],"categories":[],"categories_nodes":[],"categories_segments":[],"categories_sizes":[],"default_left":[true,true,true,true,true,true,true,true,true,true,true,true,true,true,true,false,false,false,false,false,false,false,false,false,false,false,false,false,false,false,false],"id":19,"left_children":[1,3,5,7,9,11,13,15,17,19,21,23,25,27,29,-1,-1,-1,-1,-1,-1,-1,-1,-1,-1,-1,-1,-1,-1,-1,-1],"loss_changes":[4.3897754E3,1.0594355E3,9.1073047E2,2.2358936E2,2.835498E2,1.8219629E2,1.3739941E2,1.4097668E2,9.079932E1,1.3186084E2,1.7296777E2,7.614014E1,1.0198389E2,1.7779541E1,2.4947754E1,0E0,0E0,0E0,0E0,0E0,0E0,0E0,0E0,0E0,0E0,0E0,0E0,0E0,0E0,0E0,0E0],"parents":[2147483647,0,0,1,1,2,2,3,3,4,4,5,5,6,6,7,7,8,8,9,9,10,10,11,11,12,12,13,13,14,14],"right_children":[2,4,6,8,10,12,14,16,18,20,22,24,26,28,30,-1,-1,-1,-1,-1,-1,-1,-1,-1,-1,-1,-1,-1,-1,-1,-1],"split_conditions":[4.8897E0,3.07055E0,6.8195496E0,4.3349037E0,3.85E1,2.75E1,7.8151503E0,2.2147E0,2.36325E0,3.7965E1,-1.22365005E2,5.71745E0,5.6166E0,-1.21994995E2,9.06935E0,6.879452E-3,1.1690105E-2,3.3197647E-3,6.7042457E-3,1.26443645E-2,8.336235E-3,2.4013292E-2,1.5135988E-2,1.5301404E-2,1.9872189E-2,2.0254117E-2,2.6713206E-2,3.0080603E-2,2.533567E-2,3.2130115E-2,3.6477484E-2],"split_indices":[0,0,0,2,1,1,0,0,0,6,7,0,0,7,0,0,0,0,0,0,0,0,0,0,0,0,0,0,0,0,0],"split_type":[0,0,0,0,0,0,0,0,0,0,0,0,0,0,0,0,0,0,0,0,0,0,0,0,0,0,0,0,0,0,0],"sum_hessian":[1.4901E4,1.1449E4,3.452E3,5.631E3,5.818E3,2.492E3,9.6E2,2.447E3,3.184E3,4.62E3,1.198E3,1.475E3,1.017E3,4.07E2,5.53E2,1.298E3,1.149E3,1.492E3,1.692E3,3.742E3,8.78E2,2.9E2,9.08E2,8.03E2,6.72E2,6.02E2,4.15E2,1.14E2,2.93E2,2.71E2,2.82E2],"tree_param":{"num_deleted":"0","num_feature":"8","num_nodes":"31","size_leaf_vector":"0"}},{"base_weights":[1.2862825E0,1.0114202E0,2.3435364E0,6.5368336E-1,1.2748413E0,2.0043535E0,3.0785003E0,1.0307498E0,5.2957666E-1,1.9604031E0,1.1232985E0,2.4539132E0,1.6945643E0,2.8043222E0,3.3961427E0,1.3128692E0,7.67862E-1,3.651305E-1,7.342893E-1,1.4359941E0,2.2948363E0,9.780436E-1,1.3746656E0,2.0438662E0,2.6380215E0,1.5275295E0,2.041018E0,2.5097442E0,3.5200982E0,3.082094E0,3.5769827E0],"categories":[],"categories_nodes":[],"categories_segments":[],"categories_sizes":[],"default_left":[true,true,true,true,true,true,true,true,true,true,true,true,true,true,true,false,false,false,false,false,false,false,false,false,false,false,false,false,false,false,false],"id":20,"left_children":[1,3,5,7,9,11,13,15,17,19,21,23,25,27,29,-1,-1,-1,-1,-1,-1,-1,-1,-1,-1,-1,-1,-1,-1,-1,-1],"loss_changes":[4.309666E3,1.1091719E3,7.6222656E2,2.335581E2,7.0407227E2,2.9122656E2,8.318555E1,9.157544E1,1.2641919E2,2.148794E2,2.0258545E2,6.3939453E1,7.145264E1,1.0856958E2,2.428955E1,0E0,0E0,0E0,0E0,0E0,0E0,0E0,0E0,0E0,0E0,0E0,0E0,0E0,0E0,0E0,0E0],"parents":[2147483647,0,0,1,1,2,2,3,3,4,4,5,5,6,6,7,7,8,8,9,9,10,10,11,11,12,12,13,13,14,14],"right_children":[2,4,6,8,10,12,14,16,18,20,22,24,26,28,30,-1,-1,-1,-1,-1,-1,-1,-1,-1,-1,-1,-1,-1,-1,-1,-1],"split_conditions":[5.0851E0,2.9194999E0,6.8195496E0,3.824513E0,2.2771976E0,2.7394154E0,2.65E1,3.097241E0,2.3667998E0,2.45E1,4.1185503E0,2.15E1,6.07325E0,8.77495E0,7.7173E0,1.3128691E-2,7.67862E-3,3.651305E-3,7.3428927E-3,1.4359941E-2,2.2948362E-2,9.780436E-3,1.3746656E-2,2.0438662E-2,2.6380215E-2,1.5275295E-2,2.041018E-2,2.509744E-2,3.520098E-2,3.082094E-2,3.5769828E-2],"split_indices":[0,0,0,2,5,5,1,5,0,1,0,1,0,0,0,0,0,0,0,0,0,0,0,0,0,0,0,0,0,0,0],"split_type":[0,0,0,0,0,0,0,0,0,0,0,0,0,0,0,0,0,0,0,0,0,0,0,0,0,0,0,0,0,0,0],"sum_hessian":[1.4831E4,1.1771E4,3.06E3,4.992E3,6.779E3,2.094E3,9.66E2,1.236E3,3.756E3,1.227E3,5.552E3,8.54E2,1.24E3,5.19E2,4.47E2,5.96E2,6.4E2,2.083E3,1.673E3,4.78E2,7.49E2,3.519E3,2.033E3,2.65E2,5.89E2,8.37E2,4.03E2,3.68E2,1.51E2,1.64E2,2.83E2],"tree_param":{"num_deleted":"0","num_feature":"8","num_nodes":"31","size_leaf_vector":"0"}},{"base_weights":[1.273055E0,1.006013E0,2.3241541E0,7.171569E-1,1.3359219E0,2.0532024E0,3.190944E0,1.233939E0,6.262211E-1,1.9974993E0,1.1489358E0,2.4785666E0,1.746752E0,2.9416282E0,3.5432422E0,9.245264E-1,1.537269E0,8.2041466E-1,4.9884805E-1,1.3077854E0,2.271152E0,1.0831562E0,1.6326284E0,1.9893404E0,2.685222E0,1.5270875E0,2.1101549E0,2.6693296E0,3.3707273E0,7.978309E-2,3.554912E0],"categories":[],"categories_nodes":[],"categories_segments":[],"categories_sizes":[],"default_left":[true,true,true,true,true,true,true,true,true,true,true,true,true,true,true,false,false,false,false,false,false,false,false,false,false,false,false,false,false,false,false],"id":21,"left_children":[1,3,5,7,9,11,13,15,17,19,21,23,25,27,29,-1,-1,-1,-1,-1,-1,-1,-1,-1,-1,-1,-1,-1,-1,-1,-1],"loss_changes":[4.178668E3,1.1312695E3,7.0770215E2,2.973994E2,6.853613E2,2.9913184E2,6.203125E1,8.874719E1,1.331101E2,2.3017578E2,1.373081E2,9.673584E1,1.06333984E2,4.8302734E1,1.197998E1,0E0,0E0,0E0,0E0,0E0,0E0,0E0,0E0,0E0,0E0,0E0,0E0,0E0,0E0,0E0,0E0],"parents":[2147483647,0,0,1,1,2,2,3,3,4,4,5,5,6,6,7,7,8,8,9,9,10,10,11,11,12,12,13,13,14,14],"right_children":[2,4,6,8,10,12,14,16,18,20,22,24,26,28,30,-1,-1,-1,-1,-1,-1,-1,-1,-1,-1,-1,-1,-1,-1,-1,-1],"split_conditions":[5.0862503E0,3.2278E0,7.3931E0,2.1586823E0,2.3714151E0,2.7424803E0,9.0398E0,2.4439502E0,4.3426056E0,1.95E1,4.25E1,2.15E1,6.0895996E0,2.85E1,6.75E-1,9.245263E-3,1.537269E-2,8.204146E-3,4.9884804E-3,1.3077853E-2,2.271152E-2,1.0831562E-2,1.6326284E-2,1.9893404E-2,2.6852218E-2,1.5270874E-2,2.1101547E-2,2.6693296E-2,3.3707272E-2,7.978309E-4,3.554912E-2],"split_indices":[0,0,0,5,5,5,0,0,2,1,1,1,0,1,3,0,0,0,0,0,0,0,0,0,0,0,0,0,0,0,0],"split_type":[0,0,0,0,0,0,0,0,0,0,0,0,0,0,0,0,0,0,0,0,0,0,0,0,0,0,0,0,0,0,0],"sum_hessian":[1.4888E4,1.1872E4,3.016E3,6.33E3,5.542E3,2.298E3,7.18E2,9.47E2,5.383E3,1.221E3,4.321E3,9.62E2,1.336E3,4.21E2,2.97E2,4.69E2,4.78E2,2.132E3,3.251E3,3.47E2,8.74E2,3.804E3,5.17E2,2.86E2,6.76E2,8.33E2,5.03E2,2.58E2,1.63E2,1E0,2.96E2],"tree_param":{"num_deleted":"0","num_feature":"8","num_nodes":"31","size_leaf_vector":"0"}},{"base_weights":[1.2591959E0,1.1098093E0,1.947071E0,1.5737431E0,9.382834E-1,2.1726851E0,1.0362563E0,1.1870477E0,1.8064787E0,1.0913517E0,7.473294E-1,1.9606344E0,2.9113927E0,1.3327274E0,7.850179E-1,1.3421998E0,6.462469E-1,2.0464747E0,6.822774E-1,1.2359294E0,5.860494E-1,1.1323894E0,6.762028E-1,2.4079163E0,1.6213921E0,2.6205444E0,3.4266226E0,1.0646938E0,2.3081577E0,8.459542E-1,-2.5610534E-2],"categories":[],"categories_nodes":[],"categories_segments":[],"categories_sizes":[],"default_left":[true,true,true,true,true,true,true,true,true,true,true,true,true,true,true,false,false,false,false,false,false,false,false,false,false,false,false,false,false,false,false],"id":22,"left_children":[1,3,5,7,9,11,13,15,17,19,21,23,25,27,29,-1,-1,-1,-1,-1,-1,-1,-1,-1,-1,-1,-1,-1,-1,-1,-1],"loss_changes":[1.5313203E3,9.7427734E2,5.462002E2,2.972378E2,2.6122852E2,3.3325195E2,3.9230896E1,1.0413342E2,5.564922E2,3.6243604E2,1.0887573E2,2.5090088E2,7.029761E1,6.305081E1,1.4134537E1,0E0,0E0,0E0,0E0,0E0,0E0,0E0,0E0,0E0,0E0,0E0,0E0,0E0,0E0,0E0,0E0],"parents":[2147483647,0,0,1,1,2,2,3,3,4,4,5,5,6,6,7,7,8,8,9,9,10,10,11,11,12,12,13,13,14,14],"right_children":[2,4,6,8,10,12,14,16,18,20,22,24,26,28,30,-1,-1,-1,-1,-1,-1,-1,-1,-1,-1,-1,-1,-1,-1,-1,-1],"split_conditions":[6.3743052E0,2.421381E0,1.2182057E0,2.45E1,3.1325135E0,7.5729017E0,1.5508922E0,3.7955E1,3.7925E1,3.7925E1,-1.2159E2,2.8471017E0,2.65E1,8.107936E0,-1.1625E2,1.3421997E-2,6.4624688E-3,2.0464746E-2,6.8227737E-3,1.2359293E-2,5.8604935E-3,1.1323894E-2,6.7620277E-3,2.4079163E-2,1.6213922E-2,2.6205443E-2,3.4266226E-2,1.0646937E-2,2.3081576E-2,8.459542E-3,-2.5610533E-4],"split_indices":[2,5,3,1,5,2,3,6,6,6,7,5,1,2,7,0,0,0,0,0,0,0,0,0,0,0,0,0,0,0,0],"split_type":[0,0,0,0,0,0,0,0,0,0,0,0,0,0,0,0,0,0,0,0,0,0,0,0,0,0,0,0,0,0,0],"sum_hessian":[1.4904E4,1.2245E4,2.659E3,3.305E3,8.94E3,2.131E3,5.28E2,1.242E3,2.063E3,4.962E3,3.978E3,1.656E3,4.75E2,2.42E2,2.86E2,9.65E2,2.77E2,1.7E3,3.63E2,3.858E3,1.104E3,6.2E2,3.358E3,7.14E2,9.42E2,3.04E2,1.71E2,1.9E2,5.2E1,2.66E2,2E1],"tree_param":{"num_deleted":"0","num_feature":"8","num_nodes":"31","size_leaf_vector":"0"}},{"base_weights":[1.2497011E0,9.131983E-1,2.0723362E0,6.074902E-1,1.1558416E0,1.7265348E0,2.846295E0,1.0645871E0,5.3496283E-1,1.8146743E0,1.0000268E0,2.277216E0,1.5001016E0,2.5767004E0,3.300827E0,1.2963839E0,7.86879E-1,9.1775024E-1,4.414935E-1,1.2884473E0,2.1443815E0,9.514779E-1,1.634006E0,1.7717474E0,2.5108273E0,1.7112719E0,1.3440348E0,2.3412583E0,3.33643E0,3.0418198E0,3.560598E0],"categories":[],"categories_nodes":[],"categories_segments":[],"categories_sizes":[],"default_left":[true,true,true,true,true,true,true,true,true,true,true,true,true,true,true,false,false,false,false,false,false,false,false,false,false,false,false,false,false,false,false],"id":23,"left_children":[1,3,5,7,9,11,13,15,17,19,21,23,25,27,29,-1,-1,-1,-1,-1,-1,-1,-1,-1,-1,-1,-1,-1,-1,-1,-1],"loss_changes":[4.1011914E3,7.7991895E2,1.1506367E3,1.5420276E2,6.015967E2,3.7038184E2,1.6189453E2,4.090924E1,1.4365112E2,1.9423535E2,1.45771E2,1.0182666E2,6.921289E1,1.484165E2,3.2161133E1,0E0,0E0,0E0,0E0,0E0,0E0,0E0,0E0,0E0,0E0,0E0,0E0,0E0,0E0,0E0,0E0],"parents":[2147483647,0,0,1,1,2,2,3,3,4,4,5,5,6,6,7,7,8,8,9,9,10,10,11,11,12,12,13,13,14,14],"right_children":[2,4,6,8,10,12,14,16,18,20,22,24,26,28,30,-1,-1,-1,-1,-1,-1,-1,-1,-1,-1,-1,-1,-1,-1,-1,-1],"split_conditions":[4.53485E0,2.8198E0,6.338E0,2.1366553E0,2.2641082E0,2.5890248E0,2.95E1,4.2577605E0,3.7092803E0,2.45E1,4.75E1,2.15E1,2.9746432E0,8.5649E0,7.80145E0,1.2963838E-2,7.86879E-3,9.177502E-3,4.414935E-3,1.28844725E-2,2.1443814E-2,9.514779E-3,1.634006E-2,1.7717473E-2,2.5108272E-2,1.7112719E-2,1.3440347E-2,2.3412582E-2,3.33643E-2,3.0418197E-2,3.560598E-2],"split_indices":[0,0,0,5,5,5,1,2,2,1,1,1,5,0,0,0,0,0,0,0,0,0,0,0,0,0,0,0,0,0,0],"split_type":[0,0,0,0,0,0,0,0,0,0,0,0,0,0,0,0,0,0,0,0,0,0,0,0,0,0,0,0,0,0,0],"sum_hessian":[1.4816E4,1.0515E4,4.301E3,4.653E3,5.862E3,2.973E3,1.328E3,6.37E2,4.016E3,1.121E3,4.741E3,8.66E2,2.107E3,8.34E2,4.94E2,3.47E2,2.9E2,7.88E2,3.228E3,4.32E2,6.89E2,4.404E3,3.37E2,2.74E2,5.92E2,8.95E2,1.212E3,6.37E2,1.97E2,2.48E2,2.46E2],"tree_param":{"num_deleted":"0","num_feature":"8","num_nodes":"31","size_leaf_vector":"0"}},{"base_weights":[1.2365491E0,9.0460867E-1,2.0576007E0,6.035395E-1,1.1479878E0,1.7246542E0,2.7963283E0,9.781432E-1,4.7653845E-1,1.8316537E0,9.908984E-1,2.1772377E0,1.4490225E0,2.4608192E0,3.2593002E0,1.2295138E0,7.7287334E-1,2.9471362E-1,6.1874676E-1,1.6645392E0,2.1978407E0,1.5050668E0,9.447188E-1,2.8418713E0,2.0532978E0,1.3308376E0,1.7346468E0,2.7842276E0,2.1392717E0,1.7646418E0,3.2888672E0],"categories":[],"categories_nodes":[],"categories_segments":[],"categories_sizes":[],"default_left":[true,true,true,true,true,true,true,true,true,true,true,true,true,true,true,false,false,false,false,false,false,false,false,false,false,false,false,false,false,false,false],"id":24,"left_children":[1,3,5,7,9,11,13,15,17,19,21,23,25,27,29,-1,-1,-1,-1,-1,-1,-1,-1,-1,-1,-1,-1,-1,-1,-1,-1],"loss_changes":[4.0715938E3,7.795E2,1.0574023E3,2.2622522E2,6.3164453E2,3.695703E2,2.0673633E2,6.2035034E1,9.182843E1,6.68938E1,1.1345166E2,9.184912E1,6.198584E1,8.00083E1,2.421582E1,0E0,0E0,0E0,0E0,0E0,0E0,0E0,0E0,0E0,0E0,0E0,0E0,0E0,0E0,0E0,0E0],"parents":[2147483647,0,0,1,1,2,2,3,3,4,4,5,5,6,6,7,7,8,8,9,9,10,10,11,11,12,12,13,13,14,14],"right_children":[2,4,6,8,10,12,14,16,18,20,22,24,26,28,30,-1,-1,-1,-1,-1,-1,-1,-1,-1,-1,-1,-1,-1,-1,-1,-1],"split_conditions":[4.53095E0,2.83115E0,6.32265E0,3.824513E0,2.268701E0,2.6861432E0,7.8151503E0,2.976529E0,2.1469E0,3.80515E0,-1.22384995E2,2.05759E0,5.59205E0,2.865821E0,5.65E1,1.2295137E-2,7.728733E-3,2.947136E-3,6.1874674E-3,1.6645392E-2,2.1978406E-2,1.5050667E-2,9.447187E-3,2.8418712E-2,2.0532977E-2,1.3308376E-2,1.7346468E-2,2.7842276E-2,2.1392716E-2,1.7646417E-2,3.2888673E-2],"split_indices":[0,0,0,2,5,5,0,5,0,0,7,5,0,5,4,0,0,0,0,0,0,0,0,0,0,0,0,0,0,0,0],"split_type":[0,0,0,0,0,0,0,0,0,0,0,0,0,0,0,0,0,0,0,0,0,0,0,0,0,0,0,0,0,0,0],"sum_hessian":[1.494E4,1.0639E4,4.301E3,4.756E3,5.883E3,2.965E3,1.336E3,1.204E3,3.552E3,1.099E3,4.784E3,1.122E3,1.843E3,7.75E2,5.61E2,5.41E2,6.63E2,1.559E3,1.993E3,7.55E2,3.44E2,3.94E2,4.39E3,1.76E2,9.46E2,1.304E3,5.39E2,3.86E2,3.89E2,1.1E1,5.5E2],"tree_param":{"num_deleted":"0","num_feature":"8","num_nodes":"31","size_leaf_vector":"0"}},{"base_weights":[1.2263763E0,1.0809436E0,1.8844869E0,1.5266602E0,9.0227234E-1,2.112568E0,9.795151E-1,1.0468974E0,2.06349E0,6.8192625E-1,1.4135914E0,1.4771571E0,2.8162894E0,6.118199E-1,1.8564569E0,1.3433785E0,8.0070305E-1,1.4226E0,2.275432E0,1.0574774E0,6.604164E-1,1.6777834E0,1.1941602E0,1.8927423E0,1.3508878E0,2.5093145E0,3.245363E0,1.1179755E0,5.3876615E-1,2.2089446E0,1.2338299E0],"categories":[],"categories_nodes":[],"categories_segments":[],"categories_sizes":[],"default_left":[true,true,true,true,true,true,true,true,true,true,true,true,true,true,true,false,false,false,false,false,false,false,false,false,false,false,false,false,false,false,false],"id":25,"left_children":[1,3,5,7,9,11,13,15,17,19,21,23,25,27,29,-1,-1,-1,-1,-1,-1,-1,-1,-1,-1,-1,-1,-1,-1,-1,-1],"loss_changes":[1.4235059E3,9.70084E2,5.5546094E2,8.976323E2,9.7978174E2,9.6100586E2,1.7468512E2,1.3427808E2,2.2313281E2,4.9029297E1,1.5163379E2,5.904712E1,1.3354785E2,1.4068512E1,3.486432E1,0E0,0E0,0E0,0E0,0E0,0E0,0E0,0E0,0E0,0E0,0E0,0E0,0E0,0E0,0E0,0E0],"parents":[2147483647,0,0,1,1,2,2,3,3,4,4,5,5,6,6,7,7,8,8,9,9,10,10,11,11,12,12,13,13,14,14],"right_children":[2,4,6,8,10,12,14,16,18,20,22,24,26,28,30,-1,-1,-1,-1,-1,-1,-1,-1,-1,-1,-1,-1,-1,-1,-1,-1],"split_conditions":[6.3675776E0,2.4513495E0,1.2180679E0,3.34345E0,4.01705E0,6.3574E0,4.06485E0,4.319745E0,1.95E1,3.231954E0,2.898805E0,2.7019036E0,2.65E1,2.040064E0,1.8281195E0,1.3433785E-2,8.00703E-3,1.4226E-2,2.275432E-2,1.0574773E-2,6.604164E-3,1.6777834E-2,1.19416015E-2,1.8927421E-2,1.3508878E-2,2.5093146E-2,3.245363E-2,1.11797545E-2,5.3876615E-3,2.2089446E-2,1.2338298E-2],"split_indices":[2,5,3,0,0,0,0,2,1,2,5,5,1,5,3,0,0,0,0,0,0,0,0,0,0,0,0,0,0,0,0],"split_type":[0,0,0,0,0,0,0,0,0,0,0,0,0,0,0,0,0,0,0,0,0,0,0,0,0,0,0,0,0,0,0],"sum_hessian":[1.4875E4,1.2183E4,2.692E3,3.486E3,8.697E3,2.15E3,5.42E2,1.841E3,1.645E3,6.078E3,2.619E3,1.13E3,1.02E3,3.82E2,1.6E2,8.35E2,1.006E3,4.09E2,1.236E3,3.29E2,5.749E3,1.188E3,1.431E3,2.63E2,8.67E2,5.95E2,4.25E2,4.8E1,3.34E2,1.02E2,5.8E1],"tree_param":{"num_deleted":"0","num_feature":"8","num_nodes":"31","size_leaf_vector":"0"}},{"base_weights":[1.2089338E0,9.454452E-1,2.1896265E0,6.484813E-1,1.2190071E0,1.8919791E0,2.8996634E0,8.7557113E-1,4.7368664E-1,1.1529897E0,1.9279219E0,1.664249E0,2.2231395E0,2.5049508E0,3.1675382E0,1.0890113E0,6.5056944E-1,6.9624555E-1,3.6607337E-1,1.7607832E0,1.0282956E0,2.514853E0,1.5315334E0,2.044997E0,1.5021647E0,2.7020476E0,1.9469053E0,2.2337923E0,2.9302971E0,2.831443E0,3.3146791E0],"categories":[],"categories_nodes":[],"categories_segments":[],"categories_sizes":[],"default_left":[true,true,true,true,true,true,true,true,true,true,true,true,true,true,true,false,false,false,false,false,false,false,false,false,false,false,false,false,false,false,false],"id":26,"left_children":[1,3,5,7,9,11,13,15,17,19,21,23,25,27,29,-1,-1,-1,-1,-1,-1,-1,-1,-1,-1,-1,-1,-1,-1,-1,-1],"loss_changes":[3.8386309E3,9.512256E2,6.643496E2,2.2284497E2,2.850332E2,1.668335E2,9.744336E1,1.1720947E2,7.597113E1,4.2242188E2,1.20384766E2,8.079028E1,1.189458E2,4.272339E1,2.641455E1,0E0,0E0,0E0,0E0,0E0,0E0,0E0,0E0,0E0,0E0,0E0,0E0,0E0,0E0,0E0,0E0],"parents":[2147483647,0,0,1,1,2,2,3,3,4,4,5,5,6,6,7,7,8,8,9,9,10,10,11,11,12,12,13,13,14,14],"right_children":[2,4,6,8,10,12,14,16,18,20,22,24,26,28,30,-1,-1,-1,-1,-1,-1,-1,-1,-1,-1,-1,-1,-1,-1,-1,-1],"split_conditions":[5.04525E0,3.07055E0,6.8683E0,4.3342915E0,4.75E1,2.75E1,7.8151503E0,3.107762E0,3.4455E1,2.2984521E0,-1.223E2,2.7441897E0,2.525055E0,2.65E1,1.85E1,1.0890113E-2,6.5056942E-3,6.9624553E-3,3.6607336E-3,1.7607832E-2,1.0282956E-2,2.514853E-2,1.5315333E-2,2.044997E-2,1.5021647E-2,2.7020475E-2,1.9469053E-2,2.2337923E-2,2.9302971E-2,2.831443E-2,3.314679E-2],"split_indices":[0,0,0,2,1,1,0,5,6,5,7,5,5,1,1,0,0,0,0,0,0,0,0,0,0,0,0,0,0,0,0],"split_type":[0,0,0,0,0,0,0,0,0,0,0,0,0,0,0,0,0,0,0,0,0,0,0,0,0,0,0,0,0,0,0],"sum_hessian":[1.4856E4,1.171E4,3.146E3,5.615E3,6.095E3,2.217E3,9.29E2,2.442E3,3.173E3,5.576E3,5.19E2,1.314E3,9.03E2,3.76E2,5.53E2,1.253E3,1.189E3,1.034E3,2.139E3,9.49E2,4.627E3,2.09E2,3.1E2,3.92E2,9.22E2,3.3E2,5.73E2,2.3E2,1.46E2,1.69E2,3.84E2],"tree_param":{"num_deleted":"0","num_feature":"8","num_nodes":"31","size_leaf_vector":"0"}},{"base_weights":[1.198581E0,8.7587535E-1,1.9974385E0,5.6757015E-1,1.108782E0,1.6809391E0,2.7028527E0,9.5297426E-1,4.5404357E-1,1.0441828E0,1.7771227E0,1.5636554E0,2.22876E0,2.3722847E0,3.1460419E0,1.1863153E0,7.351536E-1,2.9362047E-1,6.2589127E-1,1.6460042E0,9.075244E-1,2.3466914E0,1.4449815E0,2.0667386E0,1.407629E0,3.210116E0,2.1164818E0,2.0961087E0,2.8499274E0,2.946154E0,3.392255E0],"categories":[],"categories_nodes":[],"categories_segments":[],"categories_sizes":[],"default_left":[true,true,true,true,true,true,true,true,true,true,true,true,true,true,true,false,false,false,false,false,false,false,false,false,false,false,false,false,false,false,false],"id":27,"left_children":[1,3,5,7,9,11,13,15,17,19,21,23,25,27,29,-1,-1,-1,-1,-1,-1,-1,-1,-1,-1,-1,-1,-1,-1,-1,-1],"loss_changes":[3.8221895E3,7.58291E2,9.520078E2,1.9882117E2,2.5955566E2,1.88875E2,1.9280078E2,5.2472473E1,9.6776855E1,4.5104932E2,9.9943726E1,1.9014404E2,5.651758E1,9.9274414E1,2.6762695E1,0E0,0E0,0E0,0E0,0E0,0E0,0E0,0E0,0E0,0E0,0E0,0E0,0E0,0E0,0E0,0E0],"parents":[2147483647,0,0,1,1,2,2,3,3,4,4,5,5,6,6,7,7,8,8,9,9,10,10,11,11,12,12,13,13,14,14],"right_children":[2,4,6,8,10,12,14,16,18,20,22,24,26,28,30,-1,-1,-1,-1,-1,-1,-1,-1,-1,-1,-1,-1,-1,-1,-1,-1],"split_conditions":[4.53095E0,2.78605E0,6.3385E0,3.744956E0,4.75E1,3.65E1,7.8151503E0,3.129077E0,2.2206998E0,2.29959E0,-1.22305E2,2.5890248E0,2.066792E0,2.65E1,2.95E1,1.18631525E-2,7.351536E-3,2.9362047E-3,6.2589124E-3,1.6460042E-2,9.075244E-3,2.3466913E-2,1.4449814E-2,2.0667385E-2,1.407629E-2,3.2101158E-2,2.1164818E-2,2.0961087E-2,2.8499274E-2,2.946154E-2,3.392255E-2],"split_indices":[0,0,0,2,1,1,0,5,0,5,7,5,5,1,1,0,0,0,0,0,0,0,0,0,0,0,0,0,0,0,0],"split_type":[0,0,0,0,0,0,0,0,0,0,0,0,0,0,0,0,0,0,0,0,0,0,0,0,0,0,0,0,0,0,0],"sum_hessian":[1.4827E4,1.0561E4,4.266E3,4.545E3,6.016E3,2.945E3,1.321E3,1.034E3,3.511E3,5.486E3,5.3E2,2.426E3,5.19E2,7.57E2,5.64E2,4.99E2,5.35E2,1.816E3,1.695E3,1.015E3,4.471E3,1.95E2,3.35E2,5.74E2,1.852E3,5.3E1,4.66E2,4.8E2,2.77E2,3.12E2,2.52E2],"tree_param":{"num_deleted":"0","num_feature":"8","num_nodes":"31","size_leaf_vector":"0"}},{"base_weights":[1.181196E0,9.776181E-1,2.3918715E0,7.1456975E-1,1.3476418E0,2.1338565E0,3.133962E0,1.1837416E0,6.1096954E-1,1.9784862E0,1.1806546E0,2.603234E0,1.9072956E0,2.7945924E0,3.2761416E0,8.2422805E-1,1.5197426E0,8.00807E-1,4.2458054E-1,1.2781744E0,2.2670186E0,1.3988005E0,1.0353483E0,2.2086241E0,2.7935932E0,1.7794865E0,2.2918313E0,2.4489524E0,3.1769545E0,3.3402734E0,2.9537995E0],"categories":[],"categories_nodes":[],"categories_segments":[],"categories_sizes":[],"default_left":[true,true,true,true,true,true,true,true,true,true,true,true,true,true,true,false,false,false,false,false,false,false,false,false,false,false,false,false,false,false,false],"id":28,"left_children":[1,3,5,7,9,11,13,15,17,19,21,23,25,27,29,-1,-1,-1,-1,-1,-1,-1,-1,-1,-1,-1,-1,-1,-1,-1,-1],"loss_changes":[3.6521816E3,1.2346953E3,4.0775684E2,3.603479E2,5.5503906E2,1.6785449E2,2.5627441E1,1.6187549E2,2.1488965E2,2.2260596E2,1.319751E2,3.8075928E1,5.2085938E1,2.0777222E1,7.015625E0,0E0,0E0,0E0,0E0,0E0,0E0,0E0,0E0,0E0,0E0,0E0,0E0,0E0,0E0,0E0,0E0],"parents":[2147483647,0,0,1,1,2,2,3,3,4,4,5,5,6,6,7,7,8,8,9,9,10,10,11,11,12,12,13,13,14,14],"right_children":[2,4,6,8,10,12,14,16,18,20,22,24,26,28,30,-1,-1,-1,-1,-1,-1,-1,-1,-1,-1,-1,-1,-1,-1,-1,-1],"split_conditions":[5.5892E0,3.5471E0,7.8151503E0,2.235384E0,2.375895E0,2.6544926E0,1.85E1,2.57105E0,3.4455E1,1.95E1,2.8307285E0,2.15E1,2.75E1,8.782749E0,-1.18024994E2,8.24228E-3,1.5197426E-2,8.008069E-3,4.2458056E-3,1.2781744E-2,2.2670185E-2,1.3988005E-2,1.0353482E-2,2.208624E-2,2.7935931E-2,1.7794864E-2,2.2918312E-2,2.4489524E-2,3.1769544E-2,3.3402734E-2,2.9537994E-2],"split_indices":[0,0,0,5,5,5,1,0,6,1,5,1,1,0,7,0,0,0,0,0,0,0,0,0,0,0,0,0,0,0,0],"split_type":[0,0,0,0,0,0,0,0,0,0,0,0,0,0,0,0,0,0,0,0,0,0,0,0,0,0,0,0,0,0,0],"sum_hessian":[1.4819E4,1.2686E4,2.133E3,7.415E3,5.271E3,1.583E3,5.5E2,1.341E3,6.074E3,1.103E3,4.168E3,5.15E2,1.068E3,1.63E2,3.87E2,6.48E2,6.93E2,3.009E3,3.065E3,3.22E2,7.81E2,1.666E3,2.502E3,1.68E2,3.47E2,8.02E2,2.66E2,8.6E1,7.7E1,3.22E2,6.5E1],"tree_param":{"num_deleted":"0","num_feature":"8","num_nodes":"31","size_leaf_vector":"0"}},{"base_weights":[1.1754488E0,9.2381287E-1,2.1418922E0,6.363937E-1,1.2163364E0,1.845397E0,2.8023448E0,8.321985E-1,4.5319626E-1,1.3058674E0,7.584669E-1,1.661687E0,2.0837543E0,2.4291868E0,3.086383E0,1.4513547E0,6.8877E-1,7.812796E-1,2.2752947E-1,1.9172907E0,1.0842134E0,1.1331917E0,6.3671E-1,2.2851949E0,1.413794E0,2.5198019E0,1.7573369E0,2.144247E0,2.8524497E0,1.1933293E0,3.1219363E0],"categories":[],"categories_nodes":[],"categories_segments":[],"categories_sizes":[],"default_left":[true,true,true,true,true,true,true,true,true,true,true,true,true,true,true,false,false,false,false,false,false,false,false,false,false,false,false,false,false,false,false],"id":29,"left_children":[1,3,5,7,9,11,13,15,17,19,21,23,25,27,29,-1,-1,-1,-1,-1,-1,-1,-1,-1,-1,-1,-1,-1,-1,-1,-1],"loss_changes":[3.610496E3,9.9035645E2,6.0008496E2,2.1311084E2,2.3922559E2,9.235889E1,9.995264E1,2.5495581E2,2.2728479E2,6.615713E2,4.3504578E1,1.845498E2,1.3066064E2,4.8968994E1,3.5911133E1,0E0,0E0,0E0,0E0,0E0,0E0,0E0,0E0,0E0,0E0,0E0,0E0,0E0,0E0,0E0,0E0],"parents":[2147483647,0,0,1,1,2,2,3,3,4,4,5,5,6,6,7,7,8,8,9,9,10,10,11,11,12,12,13,13,14,14],"right_children":[2,4,6,8,10,12,14,16,18,20,22,24,26,28,30,-1,-1,-1,-1,-1,-1,-1,-1,-1,-1,-1,-1,-1,-1,-1,-1],"split_conditions":[5.07505E0,3.1389499E0,6.8195496E0,3.4455E1,3.7934998E1,5.7911E0,7.8151503E0,-1.18305E2,-1.21725006E2,2.419004E0,-1.22395004E2,2.5755472E0,2.783057E0,2.65E1,5.65E1,1.45135475E-2,6.8877E-3,7.812796E-3,2.2752946E-3,1.9172907E-2,1.0842133E-2,1.1331917E-2,6.3671E-3,2.2851948E-2,1.41379405E-2,2.5198018E-2,1.7573368E-2,2.144247E-2,2.8524496E-2,1.1933293E-2,3.1219363E-2],"split_indices":[0,0,0,6,6,0,0,7,7,5,7,5,5,1,4,0,0,0,0,0,0,0,0,0,0,0,0,0,0,0,0],"split_type":[0,0,0,0,0,0,0,0,0,0,0,0,0,0,0,0,0,0,0,0,0,0,0,0,0,0,0,0,0,0,0],"sum_hessian":[1.4847E4,1.178E4,3.067E3,5.942E3,5.838E3,2.117E3,9.5E2,2.872E3,3.07E3,4.883E3,9.55E2,1.196E3,9.21E2,4.11E2,5.39E2,5.4E2,2.332E3,1.251E3,1.819E3,1.299E3,3.584E3,2.34E2,7.21E2,3.4E2,8.56E2,3.94E2,5.27E2,2.46E2,1.65E2,1E1,5.29E2],"tree_param":{"num_deleted":"0","num_feature":"8","num_nodes":"31","size_leaf_vector":"0"}},{"base_weights":[1.1591455E0,9.1036344E-1,2.1356058E0,6.0096276E-1,1.1785555E0,1.8747773E0,2.9143E0,1.021262E0,5.322245E-1,1.77929E0,1.0103077E0,2.279416E0,1.5904676E0,2.6881504E0,3.2455428E0,1.18205E0,5.126025E-1,7.319245E-1,3.4634763E-1,1.221507E0,2.0550215E0,1.3166136E0,9.306678E-1,1.8434396E0,2.4715235E0,1.8013544E0,1.4628177E0,2.4589932E0,3.0513365E0,1.5254945E0,3.2969613E0],"categories":[],"categories_nodes":[],"categories_segments":[],"categories_sizes":[],"default_left":[true,true,true,true,true,true,true,true,true,true,true,true,true,true,true,false,false,false,false,false,false,false,false,false,false,false,false,false,false,false,false],"id":30,"left_children":[1,3,5,7,9,11,13,15,17,19,21,23,25,27,29,-1,-1,-1,-1,-1,-1,-1,-1,-1,-1,-1,-1,-1,-1,-1,-1],"loss_changes":[3.6155352E3,9.8423145E2,6.132578E2,1.5907825E2,6.4204395E2,2.6010547E2,5.591748E1,6.3250244E1,1.7570251E2,2.1354443E2,1.2097266E2,7.77793E1,3.554248E1,3.6793213E1,2.6657959E1,0E0,0E0,0E0,0E0,0E0,0E0,0E0,0E0,0E0,0E0,0E0,0E0,0E0,0E0,0E0,0E0],"parents":[2147483647,0,0,1,1,2,2,3,3,4,4,5,5,6,6,7,7,8,8,9,9,10,10,11,11,12,12,13,13,14,14],"right_children":[2,4,6,8,10,12,14,16,18,20,22,24,26,28,30,-1,-1,-1,-1,-1,-1,-1,-1,-1,-1,-1,-1,-1,-1,-1,-1],"split_conditions":[5.0973E0,3.03715E0,7.26075E0,2.1521087E0,2.3501592E0,2.747973E0,8.8651E0,3.7945E1,3.4455E1,2.15E1,-1.21875E2,2.15E1,3.0363655E0,2.85E1,5.65E1,1.18205E-2,5.126025E-3,7.3192446E-3,3.4634762E-3,1.22150695E-2,2.0550216E-2,1.3166135E-2,9.306678E-3,1.8434396E-2,2.4715235E-2,1.8013544E-2,1.4628177E-2,2.4589932E-2,3.0513365E-2,1.5254945E-2,3.2969613E-2],"split_indices":[0,0,0,5,5,5,0,6,6,1,7,1,5,1,4,0,0,0,0,0,0,0,0,0,0,0,0,0,0,0,0],"split_type":[0,0,0,0,0,0,0,0,0,0,0,0,0,0,0,0,0,0,0,0,0,0,0,0,0,0,0,0,0,0,0],"sum_hessian":[1.4884E4,1.1862E4,3.022E3,5.508E3,6.354E3,2.264E3,7.58E2,7.74E2,4.734E3,1.39E3,4.964E3,9.34E2,1.33E3,4.51E2,3.07E2,5.88E2,1.86E2,2.282E3,2.452E3,4.6E2,9.3E2,1.024E3,3.94E3,2.86E2,6.48E2,5.01E2,8.29E2,2.77E2,1.74E2,9E0,2.98E2],"tree_param":{"num_deleted":"0","num_feature":"8","num_nodes":"31","size_leaf_vector":"0"}},{"base_weights":[1.1488566E0,8.9841986E-1,2.0816057E0,5.5005556E-1,1.1253309E0,1.7874309E0,2.7863352E0,8.9919585E-1,4.2799228E-1,1.7568245E0,9.86786E-1,2.3476512E0,1.5637044E0,2.570973E0,3.0988748E0,1.0984712E0,7.040668E-1,2.840145E-1,6.045299E-1,1.2550274E0,2.070007E0,8.349761E-1,1.1930891E0,1.7992562E0,2.5079474E0,1.3706499E0,1.8083222E0,2.3152082E0,3.1613455E0,2.723566E0,3.2451553E0],"categories":[],"categories_nodes":[],"categories_segments":[],"categories_sizes":[],"default_left":[true,true,true,true,true,true,true,true,true,true,true,true,true,true,true,false,false,false,false,false,false,false,false,false,false,false,false,false,false,false,false],"id":31,"left_children":[1,3,5,7,9,11,13,15,17,19,21,23,25,27,29,-1,-1,-1,-1,-1,-1,-1,-1,-1,-1,-1,-1,-1,-1,-1,-1],"loss_changes":[3.4598418E3,9.229863E2,6.494502E2,1.9626062E2,6.184785E2,2.7688916E2,6.1336426E1,4.6315613E1,8.673523E1,1.99656E2,1.8152148E2,5.5026123E1,7.4418945E1,8.187842E1,1.976416E1,0E0,0E0,0E0,0E0,0E0,0E0,0E0,0E0,0E0,0E0,0E0,0E0,0E0,0E0,0E0,0E0],"parents":[2147483647,0,0,1,1,2,2,3,3,4,4,5,5,6,6,7,7,8,8,9,9,10,10,11,11,12,12,13,13,14,14],"right_children":[2,4,6,8,10,12,14,16,18,20,22,24,26,28,30,-1,-1,-1,-1,-1,-1,-1,-1,-1,-1,-1,-1,-1,-1,-1,-1],"split_conditions":[5.03495E0,2.79315E0,6.8683E0,3.82079E0,2.2643602E0,2.589226E0,2.95E1,-1.18274994E2,2.2642999E0,2.45E1,3.93485E0,1.75E1,5.8142004E0,8.77495E0,7.6217003E0,1.0984711E-2,7.040668E-3,2.8401448E-3,6.045299E-3,1.2550274E-2,2.0700071E-2,8.34976E-3,1.1930891E-2,1.7992562E-2,2.5079474E-2,1.3706499E-2,1.8083222E-2,2.3152081E-2,3.1613454E-2,2.723566E-2,3.245155E-2],"split_indices":[0,0,0,2,5,5,1,7,0,1,0,1,0,0,0,0,0,0,0,0,0,0,0,0,0,0,0,0,0,0,0],"split_type":[0,0,0,0,0,0,0,0,0,0,0,0,0,0,0,0,0,0,0,0,0,0,0,0,0,0,0,0,0,0,0],"sum_hessian":[1.4812E4,1.1677E4,3.135E3,4.606E3,7.071E3,2.212E3,9.23E2,1.193E3,3.413E3,1.272E3,5.799E3,6.31E2,1.581E3,5.47E2,3.76E2,5.9E2,6.03E2,1.88E3,1.533E3,4.89E2,7.83E2,3.341E3,2.458E3,1.43E2,4.88E2,8.84E2,6.97E2,3.82E2,1.65E2,1.06E2,2.7E2],"tree_param":{"num_deleted":"0","num_feature":"8","num_nodes":"31","size_leaf_vector":"0"}},{"base_weights":[1.1324104E0,1.0084448E0,1.8038098E0,6.915947E-1,1.4319291E0,1.1848786E0,2.6044402E0,4.849739E-1,8.744715E-1,1.3140339E0,2.152408E0,5.0408965E-1,1.4511926E0,2.2204208E0,3.0178227E0,9.792342E-1,3.645107E-1,1.4141189E0,7.457676E-1,1.9476205E0,1.139413E0,2.6457846E0,1.801069E0,4.938406E-1,3.8879642E0,1.2658523E0,1.754981E0,2.5452247E0,2.0021152E0,2.7642927E0,3.2408328E0],"categories":[],"categories_nodes":[],"categories_segments":[],"categories_sizes":[],"default_left":[true,true,true,true,true,true,true,true,true,true,true,true,true,true,true,false,false,false,false,false,false,false,false,false,false,false,false,false,false,false,false],"id":32,"left_children":[1,3,5,7,9,11,13,15,17,19,21,23,25,27,29,-1,-1,-1,-1,-1,-1,-1,-1,-1,-1,-1,-1,-1,-1,-1,-1],"loss_changes":[1.242041E3,1.6904619E3,1.1523555E3,2.7228613E2,4.5772754E2,2.3781543E2,1.6031543E2,2.0145428E2,2.6542676E2,5.124824E2,1.3093457E2,1.2608925E1,5.2878418E1,3.679419E1,2.6701172E1,0E0,0E0,0E0,0E0,0E0,0E0,0E0,0E0,0E0,0E0,0E0,0E0,0E0,0E0,0E0,0E0],"parents":[2147483647,0,0,1,1,2,2,3,3,4,4,5,5,6,6,7,7,8,8,9,9,10,10,11,11,12,12,13,13,14,14],"right_children":[2,4,6,8,10,12,14,16,18,20,22,24,26,28,30,-1,-1,-1,-1,-1,-1,-1,-1,-1,-1,-1,-1,-1,-1,-1,-1],"split_conditions":[6.5114145E0,3.5534E0,6.33195E0,2.51025E0,5.6146E0,3.77175E0,7.8141003E0,3.5566697E0,2.2386317E0,2.3703237E0,2.602758E0,1.0216566E2,5.5892E0,2.8389912E0,9.0788E0,9.792342E-3,3.6451067E-3,1.4141189E-2,7.457676E-3,1.9476205E-2,1.139413E-2,2.6457846E-2,1.8010689E-2,4.938406E-3,3.887964E-2,1.2658523E-2,1.754981E-2,2.5452247E-2,2.0021152E-2,2.7642926E-2,3.2408327E-2],"split_indices":[2,0,0,0,0,0,0,2,5,5,5,2,0,5,0,0,0,0,0,0,0,0,0,0,0,0,0,0,0,0,0],"split_type":[0,0,0,0,0,0,0,0,0,0,0,0,0,0,0,0,0,0,0,0,0,0,0,0,0,0,0,0,0,0,0],"sum_hessian":[1.4925E4,1.2599E4,2.326E3,7.207E3,5.392E3,1.312E3,1.014E3,3.384E3,3.823E3,4.634E3,7.58E2,3.69E2,9.43E2,5.26E2,4.88E2,6.63E2,2.721E3,7.36E2,3.087E3,1.001E3,3.633E3,3.15E2,4.43E2,3.68E2,1E0,5.86E2,3.57E2,2.11E2,3.15E2,2.29E2,2.59E2],"tree_param":{"num_deleted":"0","num_feature":"8","num_nodes":"31","size_leaf_vector":"0"}},{"base_weights":[1.1270379E0,9.300549E-1,2.2767353E0,6.167164E-1,1.221622E0,2.0267925E0,2.9804003E0,4.136665E-1,7.542602E-1,1.1126298E0,1.6708168E0,1.789379E0,2.4613776E0,1.2472231E0,3.0080273E0,5.860347E-1,2.5520456E-1,1.2832732E0,6.5711564E-1,1.63012E0,9.8672163E-1,2.6485007E0,1.5281777E0,2.2944374E0,1.690791E0,2.7410963E0,2.2177615E0,2.220763E0,5.8147386E-3,2.777648E0,3.2340736E0],"categories":[],"categories_nodes":[],"categories_segments":[],"categories_sizes":[],"default_left":[true,true,true,true,true,true,true,true,true,true,true,true,true,true,true,false,false,false,false,false,false,false,false,false,false,false,false,false,false,false,false],"id":33,"left_children":[1,3,5,7,9,11,13,15,17,19,21,23,25,27,29,-1,-1,-1,-1,-1,-1,-1,-1,-1,-1,-1,-1,-1,-1,-1,-1],"loss_changes":[3.3629023E3,1.1581846E3,3.8141602E2,1.7064111E2,3.2133105E2,1.6496191E2,2.6875E1,6.7398254E1,1.871372E2,3.4419678E2,1.7839185E2,5.1252197E1,3.7968506E1,1.0996608E1,2.8269531E1,0E0,0E0,0E0,0E0,0E0,0E0,0E0,0E0,0E0,0E0,0E0,0E0,0E0,0E0,0E0,0E0],"parents":[2147483647,0,0,1,1,2,2,3,3,4,4,5,5,6,6,7,7,8,8,9,9,10,10,11,11,12,12,13,13,14,14],"right_children":[2,4,6,8,10,12,14,16,18,20,22,24,26,28,30,-1,-1,-1,-1,-1,-1,-1,-1,-1,-1,-1,-1,-1,-1,-1,-1],"split_conditions":[5.58425E0,3.18615E0,7.8141003E0,2.2147E0,3.85E1,2.75E1,5.7E1,3.4445E1,2.1627383E0,2.4031281E0,2.029213E0,2.5544004E0,2.596322E0,3.35E1,9.0788E0,5.860347E-3,2.5520455E-3,1.2832732E-2,6.5711564E-3,1.63012E-2,9.867216E-3,2.6485005E-2,1.5281777E-2,2.2944374E-2,1.690791E-2,2.7410962E-2,2.2177614E-2,2.2207629E-2,5.8147383E-5,2.777648E-2,3.2340735E-2],"split_indices":[0,0,0,0,1,1,4,6,5,5,5,5,5,4,0,0,0,0,0,0,0,0,0,0,0,0,0,0,0,0,0],"split_type":[0,0,0,0,0,0,0,0,0,0,0,0,0,0,0,0,0,0,0,0,0,0,0,0,0,0,0,0,0,0,0],"sum_hessian":[1.485E4,1.2678E4,2.172E3,6.111E3,6.567E3,1.603E3,5.69E2,2.468E3,3.643E3,5.285E3,1.282E3,1.037E3,5.66E2,9E0,5.6E2,1.182E3,1.286E3,5.65E2,3.078E3,1.034E3,4.251E3,1.63E2,1.119E3,1.69E2,8.68E2,2.63E2,3.03E2,5E0,4E0,2.78E2,2.82E2],"tree_param":{"num_deleted":"0","num_feature":"8","num_nodes":"31","size_leaf_vector":"0"}},{"base_weights":[1.1214137E0,8.2012E-1,1.8727322E0,5.168233E-1,1.0261196E0,1.6077071E0,2.609359E0,9.423646E-1,4.648884E-1,1.702809E0,8.882216E-1,2.0157335E0,1.3580446E0,2.245221E0,2.9541159E0,1.1638908E0,6.2297094E-1,6.609106E-1,2.849804E-1,1.1642903E0,2.0237663E0,8.41331E-1,1.5070617E0,1.5902257E0,2.175466E0,1.5422703E0,1.2092292E0,1.9666916E0,2.7160106E0,2.633167E0,3.0830727E0],"categories":[],"categories_nodes":[],"categories_segments":[],"categories_sizes":[],"default_left":[true,true,true,true,true,true,true,true,true,true,true,true,true,true,true,false,false,false,false,false,false,false,false,false,false,false,false,false,false,false,false],"id":34,"left_children":[1,3,5,7,9,11,13,15,17,19,21,23,25,27,29,-1,-1,-1,-1,-1,-1,-1,-1,-1,-1,-1,-1,-1,-1,-1,-1],"loss_changes":[3.3602969E3,6.6198047E2,8.291084E2,9.468091E1,5.886699E2,3.1807715E2,1.4045557E2,3.2905975E1,1.3470068E2,1.8437622E2,1.519873E2,8.027002E1,5.297534E1,7.12063E1,2.3073242E1,0E0,0E0,0E0,0E0,0E0,0E0,0E0,0E0,0E0,0E0,0E0,0E0,0E0,0E0,0E0,0E0],"parents":[2147483647,0,0,1,1,2,2,3,3,4,4,5,5,6,6,7,7,8,8,9,9,10,10,11,11,12,12,13,13,14,14],"right_children":[2,4,6,8,10,12,14,16,18,20,22,24,26,28,30,-1,-1,-1,-1,-1,-1,-1,-1,-1,-1,-1,-1,-1,-1,-1,-1],"split_conditions":[4.53095E0,2.7016501E0,6.58215E0,2.030438E0,2.2259746E0,2.686201E0,7.73495E0,4.278713E0,3.4455E1,2.45E1,4.75E1,2.05E1,3.0313177E0,2.65E1,1.85E1,1.1638908E-2,6.2297094E-3,6.609106E-3,2.8498038E-3,1.1642903E-2,2.0237662E-2,8.41331E-3,1.5070617E-2,1.5902257E-2,2.175466E-2,1.5422703E-2,1.2092292E-2,1.9666916E-2,2.7160104E-2,2.633167E-2,3.0830726E-2],"split_indices":[0,0,0,5,5,5,0,2,6,1,1,1,5,1,1,0,0,0,0,0,0,0,0,0,0,0,0,0,0,0,0],"split_type":[0,0,0,0,0,0,0,0,0,0,0,0,0,0,0,0,0,0,0,0,0,0,0,0,0,0,0,0,0,0,0],"sum_hessian":[1.4845E4,1.0596E4,4.249E3,4.286E3,6.31E3,3.125E3,1.124E3,4.66E2,3.82E3,1.068E3,5.242E3,1.186E3,1.939E3,5.47E2,5.77E2,2.75E2,1.91E2,1.828E3,1.992E3,3.99E2,6.69E2,4.873E3,3.69E2,3.24E2,8.62E2,8.66E2,1.073E3,3.44E2,2.03E2,1.66E2,4.11E2],"tree_param":{"num_deleted":"0","num_feature":"8","num_nodes":"31","size_leaf_vector":"0"}},{"base_weights":[1.1085056E0,8.0833054E-1,1.8533067E0,5.1050556E-1,1.0087425E0,1.559286E0,2.5113544E0,7.0348614E-1,3.3257934E-1,1.6864336E0,8.751648E-1,1.9747002E0,1.3101238E0,2.2272859E0,2.8913252E0,1.292477E0,5.6746864E-1,6.221836E-1,1.5715596E-1,1.8311037E0,9.124648E-1,9.510948E-1,5.5936694E-1,2.6139338E0,1.8565371E0,1.4858183E0,1.1686845E0,2.3642635E0,2.0421367E0,1.2608453E0,2.9204183E0],"categories":[],"categories_nodes":[],"categories_segments":[],"categories_sizes":[],"default_left":[true,true,true,true,true,true,true,true,true,true,true,true,true,true,true,false,false,false,false,false,false,false,false,false,false,false,false,false,false,false,false],"id":35,"left_children":[1,3,5,7,9,11,13,15,17,19,21,23,25,27,29,-1,-1,-1,-1,-1,-1,-1,-1,-1,-1,-1,-1,-1,-1,-1,-1],"loss_changes":[3.337336E3,6.3503174E2,8.2926855E2,1.4693945E2,5.755962E2,3.065415E2,1.4227637E2,1.6440674E2,1.131344E2,1.17076904E2,1.2734717E2,8.344043E1,4.587622E1,1.8743652E1,2.6484863E1,0E0,0E0,0E0,0E0,0E0,0E0,0E0,0E0,0E0,0E0,0E0,0E0,0E0,0E0,0E0,0E0],"parents":[2147483647,0,0,1,1,2,2,3,3,4,4,5,5,6,6,7,7,8,8,9,9,10,10,11,11,12,12,13,13,14,14],"right_children":[2,4,6,8,10,12,14,16,18,20,22,24,26,28,30,-1,-1,-1,-1,-1,-1,-1,-1,-1,-1,-1,-1,-1,-1,-1,-1],"split_conditions":[4.53485E0,2.7016501E0,6.3385E0,3.4455E1,2.2118464E0,2.686201E0,2.65E1,-1.18295E2,-1.21725006E2,3.7815002E1,3.7945E1,2.0668597E0,3.0363655E0,-1.18045E2,5.65E1,1.292477E-2,5.6746863E-3,6.221836E-3,1.5715596E-3,1.8311037E-2,9.124648E-3,9.510947E-3,5.593669E-3,2.6139338E-2,1.856537E-2,1.48581825E-2,1.1686845E-2,2.3642635E-2,2.0421367E-2,1.2608453E-2,2.9204182E-2],"split_indices":[0,0,0,6,5,5,1,7,7,6,6,5,5,7,4,0,0,0,0,0,0,0,0,0,0,0,0,0,0,0,0],"split_type":[0,0,0,0,0,0,0,0,0,0,0,0,0,0,0,0,0,0,0,0,0,0,0,0,0,0,0,0,0,0,0],"sum_hessian":[1.4928E4,1.064E4,4.288E3,4.28E3,6.36E3,2.964E3,1.324E3,2.053E3,2.227E3,1.047E3,5.313E3,1.111E3,1.853E3,7.58E2,5.66E2,3.85E2,1.668E3,8.4E2,1.387E3,8.82E2,1.65E2,4.283E3,1.03E3,1.73E2,9.38E2,8.26E2,1.027E3,4.35E2,3.23E2,1E1,5.56E2],"tree_param":{"num_deleted":"0","num_feature":"8","num_nodes":"31","size_leaf_vector":"0"}},{"base_weights":[1.0998056E0,1.210895E0,5.5710775E-1,9.011109E-1,1.9055351E0,3.9781716E-1,1.0727007E0,6.041203E-1,1.115554E0,1.6079178E0,2.5238175E0,4.8671937E-1,1.2116637E-1,9.6329546E-1,2.0413637E0,9.218883E-1,4.6330208E-1,2.1310234E0,1.0355159E0,1.777004E0,1.2561284E0,2.2342541E0,2.8860915E0,8.553149E-1,3.9866868E-1,7.475793E-2,2.044402E-1,1.5313324E0,8.169405E-1,2.4943848E0,1.6642941E0],"categories":[],"categories_nodes":[],"categories_segments":[],"categories_sizes":[],"default_left":[true,true,true,true,true,true,true,true,true,true,true,true,true,true,true,false,false,false,false,false,false,false,false,false,false,false,false,false,false,false,false],"id":36,"left_children":[1,3,5,7,9,11,13,15,17,19,21,23,25,27,29,-1,-1,-1,-1,-1,-1,-1,-1,-1,-1,-1,-1,-1,-1,-1,-1],"loss_changes":[8.915371E2,2.641504E3,2.0635602E2,5.406465E2,6.962803E2,4.721872E1,6.2658142E1,1.5926294E2,4.00479E2,1.5181982E2,1.2839404E2,4.7126404E1,1.8036304E0,4.4194214E1,9.851181E0,0E0,0E0,0E0,0E0,0E0,0E0,0E0,0E0,0E0,0E0,0E0,0E0,0E0,0E0,0E0,0E0],"parents":[2147483647,0,0,1,1,2,2,3,3,4,4,5,5,6,6,7,7,8,8,9,9,10,10,11,11,12,12,13,13,14,14],"right_children":[2,4,6,8,10,12,14,16,18,20,22,24,26,28,30,-1,-1,-1,-1,-1,-1,-1,-1,-1,-1,-1,-1,-1,-1,-1,-1],"split_conditions":[3.7934998E1,4.53485E0,4.1269503E0,2.7861E0,6.32265E0,3.9325E1,6.3013E0,3.82079E0,-1.22305E2,-1.18024994E2,7.7894497E0,-1.22380005E2,2.56475E0,-1.22395004E2,-1.22369995E2,9.218883E-3,4.6330206E-3,2.1310234E-2,1.0355159E-2,1.7770039E-2,1.2561284E-2,2.234254E-2,2.8860914E-2,8.553149E-3,3.9866865E-3,7.475793E-4,2.044402E-3,1.5313324E-2,8.169404E-3,2.4943847E-2,1.6642941E-2],"split_indices":[6,0,0,0,0,6,0,2,7,7,0,7,0,7,7,0,0,0,0,0,0,0,0,0,0,0,0,0,0,0,0],"split_type":[0,0,0,0,0,0,0,0,0,0,0,0,0,0,0,0,0,0,0,0,0,0,0,0,0,0,0,0,0,0,0],"sum_hessian":[1.4789E4,1.2276E4,2.513E3,8.49E3,3.786E3,1.92E3,5.93E2,3.56E3,4.93E3,2.556E3,1.23E3,1.453E3,4.67E2,5.33E2,6E1,1.093E3,2.467E3,3.6E2,4.57E3,1.726E3,8.3E2,6.84E2,5.46E2,2.8E2,1.173E3,3E2,1.67E2,1.09E2,4.24E2,2.7E1,3.3E1],"tree_param":{"num_deleted":"0","num_feature":"8","num_nodes":"31","size_leaf_vector":"0"}},{"base_weights":[1.0810941E0,1.1892632E0,5.5880094E-1,8.947351E-1,1.9370657E0,3.9526725E-1,1.1170231E0,2.0702336E0,8.3544123E-1,1.6265347E0,2.485063E0,2.1523608E-1,4.9090654E-1,1.7704767E0,8.963322E-1,1.7379639E0,2.5976474E0,5.550262E-1,1.0322205E0,1.495632E0,2.1775632E0,2.2009523E0,2.8764324E0,2.942101E-1,7.3919594E-2,5.57897E-1,1.7169806E-1,2.340895E0,1.4133456E0,8.153171E-1,1.5140415E0],"categories":[],"categories_nodes":[],"categories_segments":[],"categories_sizes":[],"default_left":[true,true,true,true,true,true,true,true,true,true,true,true,true,true,true,false,false,false,false,false,false,false,false,false,false,false,false,false,false,false,false],"id":37,"left_children":[1,3,5,7,9,11,13,15,17,19,21,23,25,27,29,-1,-1,-1,-1,-1,-1,-1,-1,-1,-1,-1,-1,-1,-1,-1,-1],"loss_changes":[8.4156055E2,2.7179395E3,2.3329736E2,6.1695654E2,5.929961E2,3.403125E1,8.3354126E1,7.4044556E1,4.6505908E2,1.6024512E2,1.3959082E2,7.6549263E0,2.7599213E1,2.9431793E1,2.1550537E1,0E0,0E0,0E0,0E0,0E0,0E0,0E0,0E0,0E0,0E0,0E0,0E0,0E0,0E0,0E0,0E0],"parents":[2147483647,0,0,1,1,2,2,3,3,4,4,5,5,6,6,7,7,8,8,9,9,10,10,11,11,12,12,13,13,14,14],"right_children":[2,4,6,8,10,12,14,16,18,20,22,24,26,28,30,-1,-1,-1,-1,-1,-1,-1,-1,-1,-1,-1,-1,-1,-1,-1,-1],"split_conditions":[3.7934998E1,4.691E0,4.16445E0,-1.22365005E2,6.32225E0,2.36255E0,-1.2239E2,3.7765E1,2.78545E0,3.65E1,7.8151503E0,3.9265E1,3.9325E1,3.8185E1,6.1897E0,1.737964E-2,2.5976473E-2,5.5502616E-3,1.0322205E-2,1.4956321E-2,2.1775631E-2,2.2009522E-2,2.8764324E-2,2.942101E-3,7.391959E-4,5.5789696E-3,1.7169806E-3,2.340895E-2,1.4133455E-2,8.15317E-3,1.5140415E-2],"split_indices":[6,0,0,7,0,0,7,6,0,1,0,6,6,6,0,0,0,0,0,0,0,0,0,0,0,0,0,0,0,0,0],"split_type":[0,0,0,0,0,0,0,0,0,0,0,0,0,0,0,0,0,0,0,0,0,0,0,0,0,0,0,0,0,0,0],"sum_hessian":[1.4897E4,1.2341E4,2.556E3,8.854E3,3.487E3,1.977E3,5.79E2,4.25E2,8.429E3,2.226E3,1.261E3,6.86E2,1.291E3,1.46E2,4.33E2,2.61E2,1.64E2,3.476E3,4.953E3,1.799E3,4.27E2,7.31E2,5.3E2,4.4E2,2.46E2,1.067E3,2.24E2,5.6E1,9E1,3.83E2,5E1],"tree_param":{"num_deleted":"0","num_feature":"8","num_nodes":"31","size_leaf_vector":"0"}},{"base_weights":[1.0668597E0,7.825036E-1,1.7797562E0,4.9909928E-1,9.760403E-1,1.4894992E0,2.4307876E0,8.482831E-1,3.6843777E-1,1.5598987E0,8.3901596E-1,1.8336926E0,1.2249435E0,2.1779833E0,2.8071053E0,1.0830904E0,6.298861E-1,5.3093153E-1,2.6969057E-1,1.0343971E0,1.86713E0,7.945052E-1,1.4142601E0,1.4375854E0,2.0000641E0,9.647839E-1,1.3032967E0,2.0657628E0,2.4937758E0,1.1458672E0,2.8423588E0],"categories":[],"categories_nodes":[],"categories_segments":[],"categories_sizes":[],"default_left":[true,true,true,true,true,true,true,true,true,true,true,true,true,true,true,false,false,false,false,false,false,false,false,false,false,false,false,false,false,false,false],"id":38,"left_children":[1,3,5,7,9,11,13,15,17,19,21,23,25,27,29,-1,-1,-1,-1,-1,-1,-1,-1,-1,-1,-1,-1,-1,-1,-1,-1],"loss_changes":[3.0207617E3,5.8426514E2,8.025762E2,1.9720972E2,5.0629443E2,2.674048E2,1.24024414E2,6.029486E1,5.0467377E1,1.940481E2,1.311648E2,8.387451E1,3.3755127E1,2.7272217E1,3.0484863E1,0E0,0E0,0E0,0E0,0E0,0E0,0E0,0E0,0E0,0E0,0E0,0E0,0E0,0E0,0E0,0E0],"parents":[2147483647,0,0,1,1,2,2,3,3,4,4,5,5,6,6,7,7,8,8,9,9,10,10,11,11,12,12,13,13,14,14],"right_children":[2,4,6,8,10,12,14,16,18,20,22,24,26,28,30,-1,-1,-1,-1,-1,-1,-1,-1,-1,-1,-1,-1,-1,-1,-1,-1],"split_conditions":[4.53095E0,2.7016501E0,6.32265E0,3.824513E0,2.2685733E0,2.7730703E0,2.75E1,3.1351962E0,3.4455E1,2.45E1,4.75E1,2.05E1,1.55E1,7.8721952E0,5.65E1,1.0830904E-2,6.2988605E-3,5.3093154E-3,2.6969058E-3,1.0343971E-2,1.86713E-2,7.945051E-3,1.4142601E-2,1.4375853E-2,2.000064E-2,9.647839E-3,1.3032966E-2,2.0657627E-2,2.4937758E-2,1.1458672E-2,2.8423587E-2],"split_indices":[0,0,0,2,5,5,1,5,6,1,1,1,1,2,4,0,0,0,0,0,0,0,0,0,0,0,0,0,0,0,0],"split_type":[0,0,0,0,0,0,0,0,0,0,0,0,0,0,0,0,0,0,0,0,0,0,0,0,0,0,0,0,0,0,0],"sum_hessian":[1.4902E4,1.0653E4,4.249E3,4.323E3,6.33E3,2.939E3,1.31E3,1.177E3,3.146E3,1.203E3,5.127E3,1.277E3,1.662E3,7.84E2,5.26E2,5.67E2,6.1E2,1.189E3,1.957E3,4.44E2,7.59E2,4.759E3,3.68E2,3.78E2,8.99E2,3.85E2,1.277E3,5.79E2,2.05E2,1.1E1,5.15E2],"tree_param":{"num_deleted":"0","num_feature":"8","num_nodes":"31","size_leaf_vector":"0"}},{"base_weights":[1.056766E0,9.3108726E-1,1.6327997E0,6.442364E-1,1.3302835E0,9.28031E-1,2.248123E0,8.4680635E-1,5.0361043E-1,1.2259418E0,1.7582431E0,1.0995718E0,6.4195484E-1,2.0081103E0,2.6851945E0,5.414822E-1,1.0920397E0,2.901023E-1,6.987511E-1,1.050084E0,1.6220652E0,1.643389E0,2.5667284E0,5.1505E-1,1.2002888E0,4.4781318E-1,1.1208222E0,1.7525285E0,2.6890292E0,2.381146E0,3.0146122E0],"categories":[],"categories_nodes":[],"categories_segments":[],"categories_sizes":[],"default_left":[true,true,true,true,true,true,true,true,true,true,true,true,true,true,true,false,false,false,false,false,false,false,false,false,false,false,false,false,false,false,false],"id":39,"left_children":[1,3,5,7,9,11,13,15,17,19,21,23,25,27,29,-1,-1,-1,-1,-1,-1,-1,-1,-1,-1,-1,-1,-1,-1,-1,-1],"loss_changes":[1.0751426E3,1.3961436E3,1.1533711E3,2.0207251E2,2.2743555E2,6.0785767E1,1.484336E2,2.1761206E2,1.7447327E2,2.8537842E2,9.2352295E1,4.5569275E1,4.318927E1,1.5913208E2,4.967212E1,0E0,0E0,0E0,0E0,0E0,0E0,0E0,0E0,0E0,0E0,0E0,0E0,0E0,0E0,0E0,0E0],"parents":[2147483647,0,0,1,1,2,2,3,3,4,4,5,5,6,6,7,7,8,8,9,9,10,10,11,11,12,12,13,13,14,14],"right_children":[2,4,6,8,10,12,14,16,18,20,22,24,26,28,30,-1,-1,-1,-1,-1,-1,-1,-1,-1,-1,-1,-1,-1,-1,-1,-1],"split_conditions":[6.3743052E0,3.5489998E0,5.71465E0,4.341612E0,3.85E1,1.2180679E0,2.75E1,2.2147E0,2.66625E0,4.94925E0,5.5628E0,3.8499E0,3.77175E0,7.84925E0,7.7754498E0,5.414822E-3,1.0920397E-2,2.901023E-3,6.9875107E-3,1.050084E-2,1.6220652E-2,1.6433889E-2,2.5667284E-2,5.1504998E-3,1.2002887E-2,4.478132E-3,1.1208221E-2,1.7525285E-2,2.689029E-2,2.381146E-2,3.0146122E-2],"split_indices":[2,0,0,2,1,3,1,0,0,0,0,0,0,0,0,0,0,0,0,0,0,0,0,0,0,0,0,0,0,0,0],"split_type":[0,0,0,0,0,0,0,0,0,0,0,0,0,0,0,0,0,0,0,0,0,0,0,0,0,0,0,0,0,0,0],"sum_hessian":[1.4853E4,1.2193E4,2.66E3,7.095E3,5.098E3,1.24E3,1.42E3,2.907E3,4.188E3,4.099E3,9.99E2,7.75E2,4.65E2,9.17E2,5.03E2,1.295E3,1.612E3,2E3,2.188E3,2.839E3,1.26E3,8.75E2,1.24E2,1.14E2,6.61E2,3.31E2,1.34E2,6.67E2,2.5E2,2.62E2,2.41E2],"tree_param":{"num_deleted":"0","num_feature":"8","num_nodes":"31","size_leaf_vector":"0"}},{"base_weights":[1.0507532E0,8.414455E-1,2.0337462E0,5.9934884E-1,1.1422306E0,1.8184556E0,2.7669785E0,3.9508703E-1,7.250772E-1,1.0395706E0,1.5743996E0,1.5974369E0,2.1664102E0,2.408728E0,2.9098437E0,8.370549E-1,2.6707292E-1,9.7139186E-1,4.9331123E-1,8.375283E-1,1.1462666E0,2.131697E0,1.4002607E0,1.438727E0,1.8552748E0,1.801757E0,2.377429E0,2.0669465E0,2.7949939E0,1.3337655E0,2.9438581E0],"categories":[],"categories_nodes":[],"categories_segments":[],"categories_sizes":[],"default_left":[true,true,true,true,true,true,true,true,true,true,true,true,true,true,true,false,false,false,false,false,false,false,false,false,false,false,false,false,false,false,false],"id":40,"left_children":[1,3,5,7,9,11,13,15,17,19,21,23,25,27,29,-1,-1,-1,-1,-1,-1,-1,-1,-1,-1,-1,-1,-1,-1,-1,-1],"loss_changes":[3.0531504E3,8.908799E2,4.107334E2,1.7406885E2,2.419043E2,1.5454688E2,2.9552246E1,1.4612457E2,2.3949634E2,9.495117E1,1.0131958E2,5.0152588E1,5.975293E1,2.1746643E1,2.223584E1,0E0,0E0,0E0,0E0,0E0,0E0,0E0,0E0,0E0,0E0,0E0,0E0,0E0,0E0,0E0,0E0],"parents":[2147483647,0,0,1,1,2,2,3,3,4,4,5,5,6,6,7,7,8,8,9,9,10,10,11,11,12,12,13,13,14,14],"right_children":[2,4,6,8,10,12,14,16,18,20,22,24,26,28,30,-1,-1,-1,-1,-1,-1,-1,-1,-1,-1,-1,-1,-1,-1,-1,-1],"split_conditions":[5.2943E0,3.3631E0,7.7342E0,2.23625E0,3.85E1,2.75E1,1.85E1,3.6231003E0,4.698155E0,1.85E1,-1.22345E2,6.32265E0,5.7611504E0,8.77495E0,5.65E1,8.3705485E-3,2.670729E-3,9.713918E-3,4.9331123E-3,8.375282E-3,1.1462665E-2,2.131697E-2,1.4002606E-2,1.43872695E-2,1.8552747E-2,1.801757E-2,2.377429E-2,2.0669464E-2,2.7949939E-2,1.3337655E-2,2.9438581E-2],"split_indices":[0,0,0,0,1,1,1,2,2,1,7,0,0,0,4,0,0,0,0,0,0,0,0,0,0,0,0,0,0,0,0],"split_type":[0,0,0,0,0,0,0,0,0,0,0,0,0,0,0,0,0,0,0,0,0,0,0,0,0,0,0,0,0,0,0],"sum_hessian":[1.484E4,1.2235E4,2.605E3,6.779E3,5.456E3,2.014E3,5.91E2,2.583E3,4.196E3,4.409E3,1.047E3,1.232E3,7.82E2,1.69E2,4.22E2,5.8E2,2.003E3,2.034E3,2.162E3,1.524E3,2.885E3,2.49E2,7.98E2,7.63E2,4.69E2,2.87E2,4.95E2,9E1,7.9E1,9E0,4.13E2],"tree_param":{"num_deleted":"0","num_feature":"8","num_nodes":"31","size_leaf_vector":"0"}},{"base_weights":[1.0362376E0,8.121489E-1,1.9068592E0,5.530221E-1,1.0695986E0,1.6373336E0,2.5356019E0,7.567299E-1,4.0143147E-1,9.6874815E-1,1.4615619E0,1.4350457E0,1.9462106E0,2.157304E0,2.7200413E0,5.2628046E-1,9.9591583E-1,2.2593132E-1,5.42206E-1,1.5834372E0,8.683138E-1,2.5269578E0,1.3254368E0,1.9023267E0,1.3117328E0,2.7260888E0,1.762606E0,1.9463646E0,2.7315996E0,2.3690083E0,2.8975244E0],"categories":[],"categories_nodes":[],"categories_segments":[],"categories_sizes":[],"default_left":[true,true,true,true,true,true,true,true,true,true,true,true,true,true,true,false,false,false,false,false,false,false,false,false,false,false,false,false,false,false,false],"id":41,"left_children":[1,3,5,7,9,11,13,15,17,19,21,23,25,27,29,-1,-1,-1,-1,-1,-1,-1,-1,-1,-1,-1,-1,-1,-1,-1,-1],"loss_changes":[2.8945088E3,7.871504E2,5.142588E2,1.815791E2,2.3383789E2,1.3256348E2,6.29834E1,1.3824988E2,8.3298706E1,2.9052148E2,1.7530737E2,7.380029E1,1.19956055E2,3.5701782E1,3.744873E1,0E0,0E0,0E0,0E0,0E0,0E0,0E0,0E0,0E0,0E0,0E0,0E0,0E0,0E0,0E0,0E0],"parents":[2147483647,0,0,1,1,2,2,3,3,4,4,5,5,6,6,7,7,8,8,9,9,10,10,11,11,12,12,13,13,14,14],"right_children":[2,4,6,8,10,12,14,16,18,20,22,24,26,28,30,-1,-1,-1,-1,-1,-1,-1,-1,-1,-1,-1,-1,-1,-1,-1,-1],"split_conditions":[5.07535E0,3.13905E0,6.88755E0,4.3348637E0,3.85E1,2.75E1,1.85E1,2.2064E0,2.36705E0,2.2473783E0,2.007385E0,2.585391E0,2.3471894E0,8.797701E0,7.7213497E0,5.2628047E-3,9.9591585E-3,2.2593131E-3,5.42206E-3,1.5834372E-2,8.683138E-3,2.5269577E-2,1.3254368E-2,1.9023266E-2,1.3117327E-2,2.7260887E-2,1.762606E-2,1.9463645E-2,2.7315995E-2,2.3690082E-2,2.8975243E-2],"split_indices":[0,0,0,2,1,1,1,0,0,5,5,5,5,0,0,0,0,0,0,0,0,0,0,0,0,0,0,0,0,0,0],"split_type":[0,0,0,0,0,0,0,0,0,0,0,0,0,0,0,0,0,0,0,0,0,0,0,0,0,0,0,0,0,0,0],"sum_hessian":[1.4837E4,1.18E4,3.037E3,5.881E3,5.919E3,2.126E3,9.11E2,2.509E3,3.372E3,4.708E3,1.211E3,1.285E3,8.41E2,2.99E2,6.12E2,1.278E3,1.231E3,1.501E3,1.871E3,6.61E2,4.047E3,1.37E2,1.074E3,2.68E2,1.017E3,1.6E2,6.81E2,2.19E2,8E1,2.06E2,4.06E2],"tree_param":{"num_deleted":"0","num_feature":"8","num_nodes":"31","size_leaf_vector":"0"}},{"base_weights":[1.0311149E0,9.0709704E-1,1.5904757E0,1.3165437E0,7.484104E-1,1.3986318E0,2.0865653E0,1.0067345E0,1.97037E0,5.1346743E-1,1.1030214E0,7.783781E-1,1.9906677E0,1.3372864E0,2.7470825E0,6.647078E-1,1.2317334E0,1.1861405E0,2.1615758E0,3.4014666E-1,6.2519467E-1,1.0088669E0,1.7003165E0,4.1082814E-1,9.959659E-1,1.7427723E0,2.6095746E0,6.2705773E-1,1.762945E0,2.4323213E0,2.958898E0],"categories":[],"categories_nodes":[],"categories_segments":[],"categories_sizes":[],"default_left":[true,true,true,true,true,true,true,true,true,true,true,true,true,true,true,false,false,false,false,false,false,false,false,false,false,false,false,false,false,false,false],"id":42,"left_children":[1,3,5,7,9,11,13,15,17,19,21,23,25,27,29,-1,-1,-1,-1,-1,-1,-1,-1,-1,-1,-1,-1,-1,-1,-1,-1],"loss_changes":[1.0297402E3,7.8946875E2,2.5611035E2,6.873154E2,7.2960986E2,7.133755E2,3.7136084E2,1.7715454E2,1.6335303E2,1.0199353E2,1.9610498E2,7.586279E1,1.5206421E2,1.0633453E2,2.5888672E1,0E0,0E0,0E0,0E0,0E0,0E0,0E0,0E0,0E0,0E0,0E0,0E0,0E0,0E0,0E0,0E0],"parents":[2147483647,0,0,1,1,2,2,3,3,4,4,5,5,6,6,7,7,8,8,9,9,10,10,11,11,12,12,13,13,14,14],"right_children":[2,4,6,8,10,12,14,16,18,20,22,24,26,28,30,-1,-1,-1,-1,-1,-1,-1,-1,-1,-1,-1,-1,-1,-1,-1,-1],"split_conditions":[6.3743052E0,2.4459596E0,2.95E1,3.8670502E0,3.6419501E0,5.7236E0,6.1118E0,2.57105E0,1.65E1,2.3374E0,5.5894003E0,3.9059E0,7.8569E0,4.1289E0,7.7024E0,6.647078E-3,1.2317334E-2,1.1861405E-2,2.1615757E-2,3.4014666E-3,6.2519466E-3,1.0088669E-2,1.7003166E-2,4.1082813E-3,9.959659E-3,1.7427724E-2,2.6095744E-2,6.270577E-3,1.762945E-2,2.4323212E-2,2.958898E-2],"split_indices":[2,5,1,0,0,0,0,0,1,0,0,0,0,0,0,0,0,0,0,0,0,0,0,0,0,0,0,0,0,0,0],"split_type":[0,0,0,0,0,0,0,0,0,0,0,0,0,0,0,0,0,0,0,0,0,0,0,0,0,0,0,0,0,0,0],"sum_hessian":[1.4846E4,1.2152E4,2.694E3,3.394E3,8.758E3,1.943E3,7.51E2,2.303E3,1.091E3,5.268E3,3.49E3,9.49E2,9.94E2,3.52E2,3.99E2,9.14E2,1.389E3,2.14E2,8.77E2,2.065E3,3.203E3,3.015E3,4.75E2,3.53E2,5.96E2,7.1E2,2.84E2,1.32E2,2.2E2,1.61E2,2.38E2],"tree_param":{"num_deleted":"0","num_feature":"8","num_nodes":"31","size_leaf_vector":"0"}},{"base_weights":[1.0186573E0,7.4234927E-1,1.7085524E0,4.588077E-1,9.3413216E-1,1.4356775E0,2.3164835E0,9.373369E-1,4.1279837E-1,1.6432477E0,8.1941724E-1,1.935428E0,1.2342669E0,2.0372458E0,2.7104375E0,7.2633034E-1,1.2107786E0,2.7837926E-1,5.5444425E-1,1.1163121E0,1.9780365E0,7.7505654E-1,1.3639152E0,1.4535607E0,2.159786E0,9.7889817E-1,1.3311759E0,1.7655402E0,2.4099765E0,2.3940613E0,2.8402514E0],"categories":[],"categories_nodes":[],"categories_segments":[],"categories_sizes":[],"default_left":[true,true,true,true,true,true,true,true,true,true,true,true,true,true,true,false,false,false,false,false,false,false,false,false,false,false,false,false,false,false,false],"id":43,"left_children":[1,3,5,7,9,11,13,15,17,19,21,23,25,27,29,-1,-1,-1,-1,-1,-1,-1,-1,-1,-1,-1,-1,-1,-1,-1,-1],"loss_changes":[2.8449492E3,5.7947314E2,7.076992E2,9.46358E1,5.169912E2,2.9630127E2,1.448877E2,2.1669983E1,7.468005E1,1.5592163E2,1.3206885E2,9.115869E1,5.1841797E1,7.796997E1,2.1830322E1,0E0,0E0,0E0,0E0,0E0,0E0,0E0,0E0,0E0,0E0,0E0,0E0,0E0,0E0,0E0,0E0],"parents":[2147483647,0,0,1,1,2,2,3,3,4,4,5,5,6,6,7,7,8,8,9,9,10,10,11,11,12,12,13,13,14,14],"right_children":[2,4,6,8,10,12,14,16,18,20,22,24,26,28,30,-1,-1,-1,-1,-1,-1,-1,-1,-1,-1,-1,-1,-1,-1,-1,-1],"split_conditions":[4.53485E0,2.6967E0,6.32265E0,1.9560161E0,2.1456118E0,2.577196E0,7.8151503E0,2.75E1,-1.18785E2,2.45E1,4.75E1,2.15E1,1.65E1,2.55E1,1.85E1,7.2633033E-3,1.2107786E-2,2.7837926E-3,5.544442E-3,1.1163121E-2,1.9780364E-2,7.750565E-3,1.3639152E-2,1.4535607E-2,2.1597859E-2,9.788982E-3,1.3311759E-2,1.7655402E-2,2.4099763E-2,2.3940613E-2,2.8402513E-2],"split_indices":[0,0,0,5,5,5,0,1,7,1,1,1,1,1,1,0,0,0,0,0,0,0,0,0,0,0,0,0,0,0,0],"split_type":[0,0,0,0,0,0,0,0,0,0,0,0,0,0,0,0,0,0,0,0,0,0,0,0,0,0,0,0,0,0,0],"sum_hessian":[1.4925E4,1.0657E4,4.268E3,4.3E3,6.357E3,2.946E3,1.322E3,3.77E2,3.923E3,8.85E2,5.472E3,8.46E2,2.1E3,7.74E2,5.48E2,2.13E2,1.64E2,2.013E3,1.91E3,3.44E2,5.41E2,5.06E3,4.12E2,2.69E2,5.77E2,5.78E2,1.522E3,4.48E2,3.26E2,1.6E2,3.88E2],"tree_param":{"num_deleted":"0","num_feature":"8","num_nodes":"31","size_leaf_vector":"0"}},{"base_weights":[1.0079132E0,7.343258E-1,1.6817666E0,4.8931944E-1,9.3436897E-1,1.3989482E0,2.2860389E0,8.1420225E-1,4.180009E-1,1.5901424E0,8.076921E-1,1.8038163E0,1.1642365E0,1.9997914E0,2.6795247E0,6.596247E-1,1.1375115E0,7.6967067E-1,3.2637233E-1,1.0604365E0,1.9389979E0,1.0322007E0,7.012325E-1,1.4100697E0,1.9757373E0,1.3381355E0,1.0296242E0,1.7449327E0,2.3846314E0,2.4650345E0,2.8808398E0],"categories":[],"categories_nodes":[],"categories_segments":[],"categories_sizes":[],"default_left":[true,true,true,true,true,true,true,true,true,true,true,true,true,true,true,false,false,false,false,false,false,false,false,false,false,false,false,false,false,false,false],"id":44,"left_children":[1,3,5,7,9,11,13,15,17,19,21,23,25,27,29,-1,-1,-1,-1,-1,-1,-1,-1,-1,-1,-1,-1,-1,-1,-1,-1],"loss_changes":[2.7459043E3,5.191909E2,7.3473535E2,1.10304565E2,4.8435205E2,2.782295E2,1.5389697E2,4.2759766E1,1.2580896E2,1.7425513E2,1.1675879E2,7.2498535E1,4.3288086E1,7.7468994E1,2.4209473E1,0E0,0E0,0E0,0E0,0E0,0E0,0E0,0E0,0E0,0E0,0E0,0E0,0E0,0E0,0E0,0E0],"parents":[2147483647,0,0,1,1,2,2,3,3,4,4,5,5,6,6,7,7,8,8,9,9,10,10,11,11,12,12,13,13,14,14],"right_children":[2,4,6,8,10,12,14,16,18,20,22,24,26,28,30,-1,-1,-1,-1,-1,-1,-1,-1,-1,-1,-1,-1,-1,-1,-1,-1],"split_conditions":[4.5308E0,2.83735E0,6.30015E0,2.2377498E0,2.209374E0,2.686201E0,7.8151503E0,2.4439502E0,3.706153E0,2.45E1,2.6644251E0,2.15E1,3.0363655E0,2.65E1,9.079399E0,6.5962467E-3,1.1375114E-2,7.6967063E-3,3.263723E-3,1.0604365E-2,1.9389978E-2,1.0322006E-2,7.012325E-3,1.4100697E-2,1.9757373E-2,1.33813545E-2,1.0296242E-2,1.7449327E-2,2.3846313E-2,2.4650345E-2,2.8808398E-2],"split_indices":[0,0,0,5,5,5,0,0,2,1,5,1,5,1,0,0,0,0,0,0,0,0,0,0,0,0,0,0,0,0,0],"split_type":[0,0,0,0,0,0,0,0,0,0,0,0,0,0,0,0,0,0,0,0,0,0,0,0,0,0,0,0,0,0,0],"sum_hessian":[1.4895E4,1.0594E4,4.301E3,4.762E3,5.832E3,2.93E3,1.371E3,8.57E2,3.905E3,9.44E2,4.888E3,1.075E3,1.855E3,7.94E2,5.77E2,5.8E2,2.77E2,8.07E2,3.098E3,3.75E2,5.69E2,1.572E3,3.316E3,3.27E2,7.48E2,8.09E2,1.046E3,4.78E2,3.16E2,2.8E2,2.97E2],"tree_param":{"num_deleted":"0","num_feature":"8","num_nodes":"31","size_leaf_vector":"0"}},{"base_weights":[9.9473417E-1,7.350515E-1,1.688776E0,1.1731799E0,6.2475574E-1,1.8895236E0,1.3076802E0,7.203471E-1,1.4491823E0,4.036204E-1,7.993606E-1,1.6174822E0,2.422679E0,1.1045476E0,2.3051612E0,1.0573021E0,5.5659115E-1,1.251381E0,1.6952757E0,7.7663785E-1,3.1700465E-1,9.544985E-1,6.834419E-1,2.0795438E0,1.4687914E0,2.1820474E0,2.735415E0,9.4406796E-1,1.353879E0,1.9892159E0,2.8300765E0],"categories":[],"categories_nodes":[],"categories_segments":[],"categories_sizes":[],"default_left":[true,true,true,true,true,true,true,true,true,true,true,true,true,true,true,false,false,false,false,false,false,false,false,false,false,false,false,false,false,false,false],"id":45,"left_children":[1,3,5,7,9,11,13,15,17,19,21,23,25,27,29,-1,-1,-1,-1,-1,-1,-1,-1,-1,-1,-1,-1,-1,-1,-1,-1],"loss_changes":[2.6662256E3,5.201846E2,3.0791895E2,2.704961E2,3.3206738E2,3.8223926E2,2.814087E2,4.5192963E1,6.526416E1,1.2259192E2,8.6364746E1,1.1972803E2,6.6461914E1,4.609082E1,3.8427246E1,0E0,0E0,0E0,0E0,0E0,0E0,0E0,0E0,0E0,0E0,0E0,0E0,0E0,0E0,0E0,0E0],"parents":[2147483647,0,0,1,1,2,2,3,3,4,4,5,5,6,6,7,7,8,8,9,9,10,10,11,11,12,12,13,13,14,14],"right_children":[2,4,6,8,10,12,14,16,18,20,22,24,26,28,30,-1,-1,-1,-1,-1,-1,-1,-1,-1,-1,-1,-1,-1,-1,-1,-1],"split_conditions":[4.60355E0,2.2951431E0,3.0247052E0,2.67275E0,2.8375E0,6.2935E0,7.2401E0,3.825107E0,3.5630999E0,3.6907082E0,2.8128736E0,2.3663242E0,7.7754498E0,5.66785E0,9.07295E0,1.0573021E-2,5.5659115E-3,1.251381E-2,1.6952757E-2,7.7663786E-3,3.1700465E-3,9.544985E-3,6.8344185E-3,2.0795438E-2,1.46879135E-2,2.1820473E-2,2.735415E-2,9.440679E-3,1.3538789E-2,1.9892158E-2,2.8300764E-2],"split_indices":[0,5,5,0,0,0,0,2,0,2,5,5,0,0,0,0,0,0,0,0,0,0,0,0,0,0,0,0,0,0,0],"split_type":[0,0,0,0,0,0,0,0,0,0,0,0,0,0,0,0,0,0,0,0,0,0,0,0,0,0,0,0,0,0,0],"sum_hessian":[1.4794E4,1.0766E4,4.028E3,2.165E3,8.601E3,2.638E3,1.39E3,